-0.5058074108075433
-1.0445947646751703
-0.3801745625365225
1.0942825385490724
1.1367390710255256
-0.016456802047836165
0.4224007325350167
-0.8041613048260988
0.6098000795297046
1.5499218617882276
-1.4539069281862356
0.7725260668099774
1.4193803340487128
-0.4952239272322325
-0.26678273200474867
-0.4046906460657016
-1.0908653087635676
0.6792903572521692
-0.8778263683879087
-0.5242586961993307
0.8790874687264709
0.7025114332467138
-0.9464960279725726
1.0190281119917102
-0.7984318623992921
-1.7419879615533314
0.937393007400951
-0.969442935759651
-1.478534739109775
-1.9251121099135313
-0.6264958305940815
-1.6341674934624255
0.49987483960599366
0.46796875413117717
0.7793313917542325
0.7056908242302601
-1.5556428634330128
0.36330978313099965
-1.4252390697242439
-0.12679872854133623
-0.19569017300595154
-0.5522182408951054
-0.2302738317617122
1.854666875062469
2.2244773244137854
-1.1109758518555115
0.16986025088897388
0.7040478356689898
1.9523028563904288
-1.0977276826025004
-1.0444282443501243
1.4416650016748807
-1.94810393799376
0.7578806687717322
0.40119088756414967
-0.09388214341723583
-2.313753751625765
0.7615565476826581
0.8495899065369457
0.22348355863160066
0.3534313462314423
-0.049926985045435086
-1.1694092163535017
0.865683763524201
1.5429938672290482
-1.3559571684151455
1.1977613300660956
-1.5408570531472825
-0.03984919857526334
1.016259355235862
-0.5451606572962217
0.7978545891357572
2.701918027819445
0.7919119319889547
0.06200486930775075
1.5710068409257643
-0.9355795090816243
0.3764591514768471
-1.2927831253958473
-1.9123339654646117
-0.2760369325228919
0.00877353867797716
-0.09435642754058189
-0.503987684455905
-0.7187962371239329
-1.8643600563714706
-0.8772960330186252
1.6526773473487821
-0.010448214979948125
-0.32830457513476846
-0.313541762995957
-2.3543291594151015
0.6489610199596064
0.5151093566215909
-0.1699326432995476
0.4194637939978074
0.41370371714597914
-0.8890548250638663
-0.7853647855835363
0.06375987029907604
-0.6552837874120119
-0.17499220420396489
-1.6345820388391634
-2.0270101300626093
-1.74250927161263
1.001199667063211
-0.0005834916046982767
-0.1831506541819469
-1.3017810878733675
0.33671874179780115
-0.988401353440279
0.38397031492307276
-0.7229801072122852
-0.9214720077605993
0.9548402753313445
0.14085523286733048
0.8352600563903433
-0.7991117714906384
-1.1077020958459298
-0.010049040293663887
-0.6231229877456118
-0.48893446390184486
-0.06743220748456272
1.3748164706689692
-0.7281164830110114
-0.6090767210679164
-0.7175499851865852
-1.5240334421232127
0.3219606142402328
-1.3576545386083878
-0.8271814840180124
-1.1808854837249545
-0.9113632403590265
1.0426299354044446
1.0299539677621647
0.8875587539184854
0.8484719761291611
0.37482879299563465
1.4870010588053284
0.5672350861677158
0.3656070510727236
-0.562639500875568
0.042685079711378304
-0.3642971803966671
-0.33951586076208196
-0.862038298056614
0.7769688835765433
0.08510242296424984
0.7238134930356646
-0.3145179920312872
-1.4152965287348764
-1.5383479943669962
-0.09792048547803475
0.2466623036397127
1.4759033704978861
-0.43976510969086285
-0.416472997652975
-0.9743337684498369
0.3965438741370424
0.3640379438456154
-0.9686832297028913
0.011762848471749576
1.216568676232394
-0.11757744363186666
1.620028341188982
0.5937296384050887
-0.046156935482746166
1.0768663479589669
0.7856708455687965
0.5878667123274726
0.5455559708125466
-0.5149533329108426
-1.4758656931747602
-1.8373329031366465
-0.3707302551637256
0.7711639174196907
-0.020397966377309427
-0.9299178993318956
-2.4773555286403632
-1.3942603184785063
-0.09710058997573083
-0.3224671976327879
1.471152675112984
1.735528186545837
1.1022782823080781
-0.1731569023915481
-0.5111235800048364
1.3371480865826892
-0.29654664946717013
-0.25931022077476384
-0.35345993638625584
0.689100065526
1.243632894356613
-0.9546499194430655
1.6485453048825274
2.0746745027167126
-0.4003533970845036
0.3386258873094718
0.6566645707755594
1.7037829926129673
-0.5878816316770706
0.8389821486238045
0.6906299975718451
-0.5279707749645421
1.497184103593762
-0.5005369816234154
0.7158245534256393
-1.2376570196061063
-0.12673730370816594
1.1858527192530204
1.281324633178455
1.1974010315717565
-0.028179157021187774
-0.7506934929823459
-1.060203108053739
-0.0593637660278339
-0.651959329533991
-0.9950758819585215
0.014129257097954496
0.38230467249996014
0.42718539902965785
-1.0873533729327367
0.42900140908719697
0.4586817489750605
-0.24708181125557438
0.3545015363005318
0.6668717946594804
0.7244052798808233
0.3851257888285684
0.24166147336489915
-0.4696964767441386
1.6808052952856178
-0.34878399995019804
-1.0515585470668767
0.06978739341773851
-1.7058182096323402
-0.33084912244998277
-1.3869222547316027
0.6897154158653701
1.1821327620206004
-0.03738465531795103
0.24809880300014914
0.7383226193035798
-0.33911256745075924
-0.10161143232856742
-1.5360642782110896
0.8381448814091151
0.06450172341414313
-0.6786555510282635
-0.5887624405869878
1.4994763130855269
-0.4924051640519378
-0.031492240686488454
-1.4707432274759578
-1.6157640700886837
-0.82270576611454
0.08439656586826746
2.0262765190365175
1.4327907620009075
-0.5037182143069073
-1.0068616987462744
-0.5089936305509962
-1.5544090070780456
0.674361167767939
-1.3283394853646457
-0.1241084285672088
-0.8702706918475499
-2.2216306777383896
1.5591415231796486
0.5052459577930584
1.4730908357287191
-0.609105142582832
1.3143510298097705
0.9847425246412422
-0.5825389962836717
-0.4960083232278499
-2.563823269752872
0.44134861435637257
1.1301812740801773
-2.15342476855535
2.150689194212525
-0.9073969372689249
0.18597685724474738
-0.4277865133085652
-1.3829051231173475
-1.848731583775976
-0.5514036953002741
1.8250531728133328
0.9402661343244667
-0.5875519448463339
1.6905014077961684
-0.08919988315326509
-0.6096160715156473
0.6365047300956282
0.09216883441161533
0.6200570035021709
-1.4206605720201733
0.2605466589537406
-0.38324845315346046
1.488904389938354
1.4026139710367067
-1.3511913773735216
1.333186937496972
0.7816046581317195
-2.1034363542275223
-0.029932385400527794
0.5049867916445616
-0.374762746972816
0.09720503860520607
0.6981380995627213
0.030959799887087937
0.9693349494292
0.5224588645410847
1.2633911998368168
0.5107016682541072
0.9596448994710706
-0.09533956863906903
2.036002530447905
0.581102266326119
2.7732242078276808
0.8485522675386171
2.3420328347865036
1.0406821413365548
0.762767248235837
-0.41168726568503505
-0.2968480625638951
-0.5967511875324651
-0.5749759525357937
0.547436261925286
1.6209736894678834
-0.04100680816538989
-0.48378779951476825
0.6737975104273672
-1.9779869050444805
0.6598729860258747
0.7893392124965503
0.5366826179880015
-0.47882049960564144
1.597666340126271
-1.0018167931102961
-1.235048760560444
1.3519194586476604
0.30317920307450175
-1.279501747356328
-1.612038638691103
-2.3377163517761614
-0.33444245137750567
-0.36272756732547556
-1.9768264398790905
-0.5842732230902121
0.47695483116051074
0.9462518925376752
0.2960711626301563
-0.9166170889349978
-2.7509876725715925
0.2824538772808386
1.6243559591296506
0.1882068027946749
1.9775881262743495
1.4385743755230158
0.6729532159055028
1.6477368207511807
-0.21860968168199793
0.1945800857252218
-0.06281623239329998
0.7744956129344034
0.7349953796413329
-0.6658523545731382
-1.1187550315850932
0.841974199335593
0.10730033188893766
1.430364516018147
-0.4868093148176085
-2.720666252424337
-0.03528987858843171
-0.19458454886155116
-1.0754811378884446
-0.5720374070021969
-0.18623237809625576
-0.877727805139354
1.204960419741669
-0.24045528676108757
0.7349745872240895
-0.6514402960066444
-0.1890675500368831
2.1797512208590577
-0.7065593894473823
-1.8280410625899326
2.282332259687929
-0.4515221713817772
0.7656303250766625
0.4483762747261791
0.26567461851035973
0.2079227433293709
-1.6461095413593487
2.7302011925273284
-0.34853626589856185
0.17868341833555584
0.015467360924398033
0.06406751027376371
-1.781949157035278
-1.5422282849042788
-2.1119617172590894
0.18265571725332355
1.583900295394586
-1.6653466788426579
-0.5641342270655649
-1.3681364090808885
1.4009017358629814
-0.4841847404267408
1.523548162227706
-2.2116284844529566
-1.5057879066211812
-0.13453586404133488
-1.0833839580167128
-0.36354771440643724
-0.7152301056916568
-0.6193945828881408
-0.7551398196593817
0.6100983535027774
1.3199115479948549
-0.22526823393794107
-0.36992826429300124
0.43056928263745536
2.8543317658499077
-0.03835209145858876
1.4675827134050181
-1.0744341725298223
-0.12734821380977931
1.0466460688348944
-1.7193693317405614
-0.05276510955535776
0.560942863378355
-0.5349323691533245
1.649782461887128
0.1053743056481542
0.18422496637344216
-0.2806756397756735
0.20481995811130074
0.6879551805364157
0.34392196001956593
0.301193386912607
0.5506513101736289
-0.7028556274909185
-0.10753316105171463
-0.08329117384518267
1.3547437888567508
0.7946783602049724
-0.47027691741075334
-0.23807825646300082
-1.0604977104227336
-1.3533034112531448
-0.4626206281904691
0.0966508405298291
0.33047949360150286
0.7510530213348986
-0.18325446778371474
1.1015165560892124
-0.13414436563235382
0.47332255288261244
-1.8879778679095023
-0.9788118933338931
-0.27555797202712407
1.4442553955275454
-1.5412597528928897
-0.3258485302980284
-0.7058303638838745
0.2750658276131529
0.9706097572182839
0.6504244294057251
-0.22400966180240478
-0.39495950410463243
-0.37986415072287355
1.2676427746668446
-0.4110478223383249
-0.9569106366628043
-0.4570297642409788
-0.14060694563416196
1.0844458393147138
-0.7451586707779916
1.8766810365327697
-0.6592128945318683
0.34039662107610263
-2.098288692293574
-0.5348992395323262
-0.7707342415811153
-0.4103721705675618
0.3369714104012137
0.305010142630001
-2.2352787702915804
1.007183357512908
-0.5891822004108814
0.3835449320742607
-0.40530397014970165
-1.898808590736396
-0.4479613693573647
-1.5658452154614628
-0.5557375814997344
0.6660118411144234
-0.9253036195252153
-1.1971820072387267
-0.06464611186567414
-0.5871197476948694
0.9111839530917232
0.8760188155438974
0.6624882151627438
-0.4495976993689957
-0.03930932396347635
1.0764028548362283
-0.34009815845193586
-1.7064155479482008
1.8116564632671905
-1.6187551132180271
-0.4119497771171252
0.510199971567273
-0.003981167387415432
-0.8043137742112969
0.1619664026884761
-0.04041707007459878
-0.11199646077144512
-1.1865738237686863
-0.5760390421761792
0.8759175432280978
0.13640801932685992
-0.24986873027150916
-1.5056648520437264
0.0802442714276987
0.8993972199699773
-0.3545011348091283
-0.03650927876396803
0.28103708814694545
0.7265854342112642
-0.573456005291674
0.465177960866694
0.9931313413004256
-0.45499181607974815
1.847522812538424
-0.17629057543153673
-0.25212162097293217
-1.0574522172785588
-1.7376272854183823
-0.8186332011842281
-1.3024901802385092
1.145038210690183
0.7429461409509797
-1.603465136287452
-0.43175951342297597
0.8611604857847183
-0.7646256220890598
1.5830297446740598
-0.002317571192969368
0.4241586044571975
-0.7043522680444084
-1.7262405698945376
0.2628958237515364
-0.7198303375960765
-0.5541649763565568
1.887228382777311
0.7709121863263471
0.812584424844131
-0.6126930608123977
1.5918202296399901
-0.5461168124269976
-1.0709896501714125
0.18013576530648273
-0.31887329560341876
-0.20994322278130603
-0.276751192611908
-0.40330202059980386
2.6479329170297383
-1.9281121555851404
-0.638762814595067
-2.64649067727173
-1.0036189825741104
0.42170826565291925
0.37049638458101636
1.2057897928198695
-0.8720492601168206
-1.4514858502521475
-0.4080937287582541
-1.2892862617287348
-0.5782016274781937
-2.2348608177644937
1.1032160798891872
-1.0195912160810086
0.38459214135284364
-1.6001124292310167
-1.6210363624917568
0.43665338700071804
0.03224930343947147
-1.7354617541543207
0.09724574888363907
0.46986230105499066
0.1753021785599097
-0.15065991122777703
-0.9453217688157494
-1.011656636976316
0.7594402491870619
1.2806767270593482
-0.19687108284319707
-1.4167191536851573
1.7509406053447854
-0.8547388502261037
1.511057832524061
-1.3480522425781736
1.6624543861505379
0.7550464594785793
-0.4053137561236761
0.6001147464482256
-2.3508800628005893
-2.320441385515006
0.5581772459445117
-0.5751165889032049
-0.9274346469434551
-1.4613419436021509
0.23778574611873704
0.9317319117786602
0.4639815620190729
-1.2282929489673409
-0.47080539208553773
-1.0552652892517354
1.2511762806701003
-0.3445765496229062
-0.8238379324831999
-3.291800743270237
-0.6488175776778821
0.5128988168236975
0.10637922418561549
1.4766523000187177
0.26330716936411663
-0.35708525844650574
-0.31928095710327564
-0.39551420396067655
0.27555536599544916
1.3097945942565987
-0.3212179471752661
-1.6562272593468597
-1.2036651847105246
-0.07046925568923033
0.35502725844199406
0.32309468921139844
-0.19383261207451918
0.2220425800457611
-1.771953294560248
1.3229200379088772
0.948449145245622
1.5720408354219817
0.7139655013899746
0.8717753745865003
0.7022115068564166
0.9153622082114381
0.9809987053101976
-0.01892737984795996
-1.1619681788023866
0.2900711493346003
-0.8048078689799189
0.5842436205490739
-0.1356835329394123
-0.3868720627760533
-0.32852238256823196
-2.9824306528164697
-0.7847030729329395
-0.39817432195215463
0.010921022427142223
1.395389921030884
-1.9716855721352589
-1.2340579540169028
1.4650861183970203
0.7376948186306123
-1.5970226794365927
1.3531288530432455
0.9225229638607395
-1.1561538668083813
1.517351222971615
0.21681033212835957
0.11287607868348154
-0.7852685736769413
1.1215182850948078
0.35878188524512156
0.09271929821152729
-0.41932402962479676
0.23118872553092665
0.311553883318259
-2.1672886465329135
-0.530482648652352
-0.8431041401475239
1.660431102391457
-1.0361873009460365
-1.057999094172765
-1.3743069556449359
0.07077278333719995
-0.8751190579989399
1.5047330025643475
-0.012806251550960159
-2.381245761860404
-1.0087679357763355
1.1610052803000661
-0.19470250556765345
-0.055200699306164384
1.3735389807375975
-0.6407149064681152
-2.064064701516516
-1.310178747977736
0.4489077086277763
-0.9687945051580887
0.87600061277216
0.3883180233486485
-0.9443917815429629
0.5542379515234822
0.8439608979470886
-0.17848707247058254
-0.4471286204625174
-1.1999542308691735
-0.8876855560969477
-3.015144580888142
0.025073270267078302
-0.39553840701682064
-2.607935780923725
-0.5095549846857782
-1.8564765311464078
-1.9632548497440978
-0.6230283172566884
1.3271587534096594
-0.23872159555749206
-0.002029073437416435
0.11349670012116855
0.549179845192477
0.45007406561139063
-0.8306225772905798
0.905654851683917
1.0664569618267048
-1.4530082246815246
1.145883442736552
0.6001137496345221
0.23924452125841367
0.565223862479427
-0.0039081731109086495
0.8937247811667982
-0.41947765100555384
-0.972868916209134
-0.5912432459859279
0.20213847506288737
0.8296487664229528
0.7461545625546454
-0.4335007749082435
-0.6310915918149437
0.42684403089900724
2.3251260868186874
0.23034822324849805
-0.03460842428002834
-0.6207975086223179
0.7692184007945391
-0.5606210118281171
1.4484441079841082
0.365299071002393
0.2830476156388645
-1.1333647468129568
-0.2693088555039934
0.558630751584818
3.3576107536181463
-0.4947350572502289
0.5080262138645515
-0.29957053508823284
-0.5802778174765142
-1.3019969094466246
0.7841766497637366
-0.9574922965469868
-0.20526964763768324
-0.37772731224114825
0.13083432472695264
-0.9086805526336974
0.37254244769826567
-0.16100153954552415
-0.06631020720860055
-2.4564905762996
1.160877782909396
-0.19169474634004227
0.023397359331358725
0.01853767404921921
0.1303789723130212
0.5800530203548454
-0.2881655931259005
-0.18251680665812015
-0.4454615997968076
0.7184531387974575
0.15871236109050607
1.291577796287502
0.3420377892532374
0.09081922618822923
-0.44069507308194683
0.635189269084296
-1.251726953799202
1.4826227495230222
0.5565928344448152
0.01708514189764427
-0.28490156855834614
0.2279204135747287
1.1912571104639456
0.7939303927947795
-0.7826534785007196
0.9836601247936921
0.6689244037628275
1.682918070868002
-0.1636135258937938
-1.5413087382594592
0.2374743709753288
1.0096113480655042
-1.3918391044876839
-1.3331018703994428
0.6174873037074837
0.4818949507477293
-0.19700567152235013
-0.17640988962799392
-2.8431436813641557
-0.5160852599977799
-0.093481698779464
-0.39587056973006385
-0.2674343744306433
-2.1852721199704437
-0.5541176021230555
-2.2329717030886282
-0.12062338409725301
1.1656018334916562
-0.359771139552133
1.7451779465348427
-0.929728647641666
0.39427214175205105
0.4884636589876333
2.0221616728124774
0.36573893669033763
0.642006836526735
-0.8186865335618587
0.09083153115289844
1.4895700545072583
1.0124578526484076
-1.6831456496081414
-1.4999010524578476
2.0634600290985294
-0.4403055750998982
1.6819395160443196
1.3278701665883241
1.311952355102751
-1.2001476109035152
-0.46116413045571575
0.1365247546122521
-0.24569659749919637
-0.7771641692261589
-1.5147032820863384
0.2631968461764055
0.020507640795320626
2.384365213881089
-0.47005342691118224
-0.005929750288148643
-1.6753002242214052
-0.5299628476977074
-1.4353800067493596
-0.010311750899795734
1.8712614214367447
0.20570791055804027
-1.807017658129416
-1.470188661584081
-0.7731730586099558
0.8079230989685752
-1.2630934200048067
-1.1435246884972627
-0.4665350395245354
-2.8008625441444894
-0.655835410497644
-1.0945912516169072
-2.2372617965841206
-0.13701350000713344
-0.6056928636510128
-1.1748984215478195
2.734718782428181
-0.4762094614935836
1.693156466129368
0.18617441801533965
1.6733181394271106
0.5547834048448286
0.953293368840447
0.13461255368278527
0.10807797321731703
1.3464261557832007
2.052354343911547
-0.028178251923524487
-0.37480901835101
0.6315783413579458
-0.5806126190551976
-0.2265743157806292
0.1795307319119901
0.26696179564744543
0.6495437121688518
-0.529748544562378
-1.6412651137020615
0.3906740277654474
0.5370343136950241
-0.14383827399991478
0.46121615408759437
-0.550908345382008
-0.30979734905153844
0.38134327796253703
1.5388283603374275
-0.7397896149541922
0.2766211529112081
-0.6670041434810071
0.792339301296119
1.1471151246247604
0.179799990148005
0.270812371148058
0.11601886928650194
1.7772860997784108
0.050934788850875524
-1.106318301692843
-0.98890882933524
-0.642107107536737
0.06898564973743135
0.01862859291982229
-0.05198731225513023
-0.15714974630998518
0.49503654038680117
0.9874547611140135
1.0336097774094557
0.2196836305565465
-0.5355021970208436
1.0222277857196564
0.2608968706938938
0.3260136294270858
-1.011735578437754
-1.3469863473469672
-1.2693878751411782
2.0855800377687364
-1.4390853045547034
0.7633698668228116
-2.4906710306200255
-0.83997852677852
-0.4777647026143703
-0.9745957398317681
0.9106861391977343
1.4825787393494414
-0.6679651173934048
0.6765943263083198
-0.6652442729794554
1.054475092168297
1.0521430538206942
-0.23082092778789054
-0.4837665155415584
0.36941478569440617
-0.4086041596606615
-0.9852508691135655
0.7253504389785537
-0.7407065975302152
-1.6463892029089937
-0.38912029931492603
0.7837615000390059
0.1558780822915367
-0.8638703611960826
-1.5426538527740874
-0.7937058075027884
0.8484379536951551
-0.4261819979891906
-1.4864417421419005
-1.1779450736462174
1.3279672517877796
1.620137062334588
0.8770711670755557
0.38519539673641895
0.4335014264471721
0.013394528118242793
0.09614940773029845
-1.4398705270773535
-0.2896440722777974
-0.7082316290072624
0.28505010989760743
0.7245113040420876
1.526433243437234
1.1884033384202874
-0.6573404216159252
-1.0996649945893044
0.863787528942211
0.18291029627408392
0.3397254078015317
-0.8492298441170706
-0.49460138601673137
-1.5423390758041249
0.10202021197202996
-0.3367845471754126
-0.6594266908194687
1.1519909756999662
-0.4423879218762487
-0.897496223469234
0.2712278825814672
1.1943054313278172
-1.1546223330598093
-0.9098709770144107
-0.11730428119239657
1.6928157774073003
2.8297668560059117
-0.07340695429373892
-1.1054776188810669
-0.6537658096234317
0.765665668916604
0.010696843763114786
0.39019122849891713
-0.6328206169256185
0.03980801448768408
2.4037590554285413
0.9787360169439734
-0.36554352234112014
-0.1954292525468557
-0.32732353158419125
0.3652321576290953
1.9540529483424809
0.3974679148674994
-1.0027749624446882
-0.6519708827001214
0.993235207634482
-0.5067129049164251
-0.6978071603429256
1.2383520456791979
-0.7923997366668621
1.0042636414136208
-1.3027466200988336
1.260987019413084
0.16380291093214483
-0.9397112277261866
0.40976218537489423
-1.4418090170883788
1.8948681291069365
1.936248877366988
0.18093052235188012
-1.1605514031522974
0.6788147704223271
0.8496129583545373
-0.07499836779395613
-0.47285828135373825
0.38654446130486947
0.19704964345039477
-0.42406588266821926
0.3319670461923675
-1.2483736813435853
0.43430703463041354
-0.3200924393687638
1.2462412988089255
-0.22516495225038155
1.157513105839247
1.5340883856652954
0.11227939538715706
-1.1351445590716214
-1.0460554879996742
-0.2846518714875408
0.6125301913018549
1.9263840869108462
-0.6514684935215185
-0.2717851630769798
-0.056184794617554754
0.5928038188188516
-0.7094917347328228
0.10433881422332841
1.6954392919029146
1.1856480281901365
-1.4964567383181229
1.6817106920830995
-0.9198703166504563
0.13463582536204005
-1.3197770784389595
-0.9504286944649385
0.2338288197265587
0.01593253875933908
0.30971110621484904
-0.7049883168685553
-0.5204081013226024
-0.14781049525505033
0.6867725553952443
0.9013032100557173
-0.08484062144177466
0.40398301278884735
-0.15485159513961957
-0.9332421204945471
0.06727209659503997
0.08216248940194423
1.3163885944440188
0.13181131239920232
0.05845663405928035
-0.2623881245994615
0.5741458815744955
-0.8378894290465017
-0.2720690691570584
-0.12950363031982623
-0.3687883821405608
-0.29821573895544684
0.26868334721297094
-0.0763578871417742
0.26593217001825414
-0.38233711247318375
2.318419282529834
0.12165433234519075
0.8426004715010433
0.15477818341583158
-0.6222346146216409
-0.029637441432406143
0.1045677446922259
-1.4424888817773482
0.6355436741176766
1.3658937090845706
0.9026327147794838
0.6002370571797668
0.02707659610899728
-0.16381371117392413
-0.5073314442510491
-0.47592119609372735
0.8824333300552917
1.0140292374288766
-1.5891361436308393
1.1387511898358458
-0.6612986071910311
0.9288647642635678
-0.35764485108882593
-0.19306400861868497
-0.43998537591394565
1.7091624900335942
-0.6715118178576741
-0.2652767684487774
-0.3619204272202692
-0.5045034819518925
-0.4185450327760954
-0.4230668668997591
-2.321484699320869
-0.7930789796119495
-0.2986686283326649
-1.1035460152227947
-0.48270664211673003
-2.128642241506066
-0.1916141834391964
0.2637748669955694
-1.6787812091177174
0.6502884674579797
0.14489246845752526
1.4082891671972735
0.8970960731295379
0.7156124006572705
0.41512282058013195
-0.4595017888993309
2.3550100326573955
-0.21384196262053315
-1.4908679541280518
1.0288575125293578
-0.6690552127895077
-0.3817319659012833
0.6388778037224827
0.7629541708810896
1.2578555231581035
-0.2617397108376582
0.28255725561565254
-1.3166952331070225
-0.5158995711531811
0.47829129600787784
1.3865227012979793
-1.2170402908929145
-1.562442970587281
-0.9596753800684692
-0.2917968862038968
-0.41254984631727704
-0.8498882225904338
0.06656240198202427
-1.168168805835232
-1.106507833722593
-1.6387559099719062
-0.2244636231526485
-0.956371936190028
2.066976082828618
-1.0580392798853724
0.2541465615161012
1.4513959123286364
0.5639514587804944
-0.3462632573312509
-0.8838042718008803
-0.7018308099293494
-0.46910013755610275
1.913858951852748
0.7613282161807661
-0.20165957368878634
-0.21587355812340764
0.2973835489361943
1.2826830118468038
0.14933015250771792
-1.1832826219459671
-1.8920148379064536
-0.2489230682758021
0.9106352042552393
0.9448766798631955
-0.5587243600836664
-0.7157958443160273
-0.13921072432472084
-1.8057973646346561
-0.45804062455986316
-0.8068438116547672
-0.40570646539913763
0.3717687226898514
0.3447089700677819
0.25094215232991174
-2.2444746255246835
0.8712229519127302
-0.8375323231723273
-0.9819906048246239
1.6654274438606853
0.10671401532577858
-0.18575060703843527
-0.5390221056981908
-0.7450599554777046
-0.6756543839430296
-0.1113761836058563
0.08861728885807468
1.4918694628142388
0.12020779392193749
-0.5922768209224157
0.26769755057865174
-0.4681419464339206
0.332633850300534
-0.47583950510406864
0.15820652623764925
-0.1309110766661145
1.1914595949160178
-2.210542751794965
0.07817955470850681
0.6564526833104316
0.7157013077630424
-0.9466900115190765
0.5810702151897531
0.5354753157158729
0.6026573806646023
1.926018599461213
0.3474562913670092
0.424154836865782
-0.5025894650149632
0.42086918608523083
1.807127228784682
1.0310931864322166
-0.8303524612589048
0.9811457499423852
-0.9299279094559469
0.044683363226067085
-0.5056494833857094
-0.13184804338904782
0.4311560688967355
-1.1568077416029978
-0.9472780727117819
-0.1743070013011155
-2.295667397036942
0.18828502817849818
-1.0639994901893008
-0.14499672437366967
0.8411091797165529
0.653057535536732
-0.9952748308466483
-2.353045974203168
0.343415594278717
1.968881183712123
-0.9994434158531952
-0.2791792732616063
-1.2884198450055147
-0.9837618213720474
0.6510796353787766
0.34475136450343574
0.47076492387845326
-0.16006322912634702
-1.415855032248897
0.04249683607285337
-0.2978039115521403
-0.8775979128861537
0.3242071021177538
-0.5371029388816381
-1.0222777830063392
0.2708520845074337
-0.19180517983677917
0.07373455296027467
-0.11550456947612321
-0.24739787335104874
-0.059965936303262024
-0.0026942217292316656
-0.5124230623371364
-1.9286358645319648
-0.13925364186425285
-0.7256402655369525
0.9061186021371775
0.2745245519097547
0.8606502988088638
0.10835482437766249
1.0126165670893388
0.03203987623927424
-0.5007606001590075
-1.0204524750729
-0.33287045122661674
0.42471514002201133
0.9906195376959633
-0.1176643585005063
0.76110578257034
-0.5243180818232932
-0.03893349179043745
-1.324512934940949
0.06551801596963235
-0.6445438032627826
-0.25557388817943605
0.5625228573431594
-0.5725024800761596
0.8454018394444681
-0.9638881592184871
0.15827035701007827
1.6862110686285459
-0.10601182960210917
1.056071719561051
1.7638544032795058
0.8590169634937064
2.023723270884939
-0.058666664530917415
0.9988468916596932
0.17918165956977156
1.9649414258606805
-1.4333200477694257
-1.2632183584123915
-1.4148675714529926
-0.521778871743248
1.1739978045087354
1.119692859758415
-2.833982572841356
0.022859279748136615
0.8115536390638594
1.5435389839389309
0.47957149535581434
0.2514103822777706
-1.5871047873119908
-0.6250100038613251
0.5130776471037493
1.092580737082984
0.4394507851008256
0.30649355361036335
-1.4177249049900156
-0.26255793458545407
-0.10020826399935336
-0.2028614301543108
1.5960182140457386
-0.8982668189650164
-1.1291651260094366
-0.5577875184548928
0.22258760357489893
1.545227242518572
1.4139276608784956
-0.594866036872894
1.031631454697694
-0.8850244574096475
0.7326226271532151
0.14153759292553775
-0.6854978302850926
-0.00366775491897005
-1.4206269661581008
-0.5275875381869554
-0.510230020292204
-0.17051218827606537
-0.48451626648658197
0.9709918406368122
-0.47941166893052406
0.18116383460428553
0.581087656580816
-1.1197786820256421
0.48656219990032357
-0.6817911094675557
-0.6469175153065172
1.0485675473779323
-2.338690031111246
1.7006676876511369
0.9474581522690577
0.3389024633075529
0.20373051611929327
0.9509023314253
2.2398572095926284
-1.1760700635829593
1.462274044771002
0.418218437730899
-0.34130761513948404
0.020687678887437905
-0.5126764978544599
0.9568357211951175
0.04159322478653939
-0.5773010279217823
0.28449868357978636
-0.4387794722552855
-0.9825641732639229
-0.45710534827666494
0.47621145702281154
1.155829127449905
1.5773864886527313
1.5962419011618183
-1.1312057100017252
0.7447048547400547
0.16023485721224165
0.267057815106953
-1.0587704018358217
0.4208371131144339
0.1341862668991711
-0.26458830370909303
-1.1639540820761796
0.37374748344901104
0.7928965897690358
1.0039546964229447
-0.13943086776993155
-0.4035341708989174
-0.16282533466948249
0.12557385441380467
-0.7003659447706021
-0.05117432160809908
-0.9666435188588284
-0.7568816704353122
-0.701699735479754
2.6008392430925675
-1.6429757639570421
-0.44753447160840315
-0.7291831075623693
0.4520292476689035
-0.5577240049632735
2.535245109850185
1.0434111730050897
0.7242575593396934
-0.05251651099461626
-0.11810667913845552
-0.8122377378640936
-0.7083201747195622
-0.5704045995022959
-1.0133986046715184
1.3146977257660304
-0.19585644991510825
-0.6462563034870744
0.5071828993843747
-0.41798512040428454
1.8105735181483382
-1.6410082171154394
0.024730703033370577
-1.4989638661413465
0.34114006255694146
0.25539658330443665
1.2527632935477828
-1.2019405354810624
-1.0105057048454118
-1.6648184877160563
2.162452497058688
-1.0458779429231793
0.43189096646377667
-1.2054264559480254
-0.38967378352498877
-0.5684564309879828
0.09864329509361068
0.15884934957858612
-0.14938824593440736
-1.4645858079956053
-1.744720540291348
0.5265970550898262
-3.3114906533873874
-0.7529942074397357
1.1135674111019689
0.07439641591669689
0.01744415438522363
-0.9671236429873008
1.7759473830641497
-2.439171623011278
0.12165712300353503
0.40007678956971815
-0.5833772172487575
-0.96215053427707
0.5834196541718693
0.11992578628115062
0.10271505298259438
0.06216579480806494
2.1242782558728828
1.1326402266743925
0.0822670428971607
-0.3263792879190291
1.0339464382346737
-1.1552651939639338
0.4038160965180738
1.4013081169370945
-0.4185949084396305
0.41937629633147466
-1.0163349087034095
0.4043332318742103
0.19842245814104595
0.43777027371034877
-0.8198637130282348
2.0134862695332205
0.7749774103774646
-2.138355072261453
-0.1562429395619172
-0.675183065630369
-1.7394025303037426
0.040873438048792836
-2.121082131889002
1.2492627140170691
-0.3970843493380024
0.21197270732839493
0.4800678799358168
-1.9320031314148316
0.7996591643015134
0.6424445616468356
0.8512683027842455
1.3501513835740828
0.006752159230145789
-1.5489688092807787
0.965345398452873
1.290650142836387
-0.5030322049501396
-1.6377114328666964
0.196995432308135
3.007934824650019
0.6353713444668252
-0.5681873448580137
-0.3523526682164134
0.4581285617702623
-0.39958328199608106
-0.07371398449285706
-0.0945004786813874
-1.5547827848763702
-0.37338234860076913
0.4209411361949755
-0.7633419886598964
-0.4511155388482127
-0.007694401178580348
0.9841950949306961
-0.24691764185062484
-0.714475952861161
0.7451386727111964
0.6695644200942016
-0.5134626522534422
-0.46549092543139914
0.5635633790002222
0.07625149397570988
-0.7483947385597725
0.04938043194757975
0.47536041333641493
-1.9014696365075239
0.17496186333029226
-0.8964810609810414
0.6948740692445361
-0.7024041885131292
-0.416510568866878
0.4276528539291467
-0.9776972533851875
0.47667177581447084
-1.4839605097388147
-0.6574835601457635
-0.15917909006019748
0.3679610528759943
1.0454821314796094
0.9196431186023819
-0.5665283498154607
-0.7989747788595896
-0.428045396625137
-1.386099886236621
0.14877156504219438
-0.2621863620264907
0.6101602895140991
-0.5849634049759015
0.7331084257745185
-0.3009455006926696
-0.7070443332078886
-0.26694661338029385
0.01491809007715734
-0.5299637441801539
-0.5068200372695172
-0.05703382655497556
-2.484277297312694
-0.4630012630858815
-0.4615447401748079
-0.3466748269278028
-0.22395023232850686
0.23046808496213736
1.564811250913044
0.09884048462681251
-0.4207866208418736
0.5379307891053007
0.25992170403704656
0.2582676226021822
1.8727613038666588
1.655332008816386
0.13355687444225733
0.637600967960511
0.9336078819917122
1.9791547632270325
1.666575224876412
0.7256698050416921
0.19438521068772904
0.5215589093768581
0.385137550651992
-0.3554669590510507
-1.2376030396037883
0.3090132145634916
0.3850097517665214
-0.7009525680561708
0.5117249470432866
-0.18722805259675912
-0.6673890530089726
0.34935021111327375
1.252115476494732
-0.7537787873855337
-0.46078526220330407
-1.0693869353231065
-0.809295530639295
-0.5332812897072406
-0.08333180720436846
-0.14961259641490784
0.6131819052464851
1.5222720558401448
0.19161633985869322
0.13359720414489148
0.36471655566092265
-0.7825938209124147
-0.04305860213256217
0.28098590030270365
0.6456438659165534
1.0149092195698963
0.6264075334417065
-1.2980280489885154
-2.101903009132168
0.3789346545244952
-1.2860560679812532
0.02234568256006958
0.24621757746716852
-0.24290446240822672
-0.8363927830511404
1.8745081139562547
-0.5516675105689098
0.8324416622839165
-0.2814021381685959
-0.9526395875852258
1.668117794014097
0.8289645099318288
-0.18893944747521663
-0.7434931713956962
0.21726542528194245
-1.5547812303009612
0.486297103582011
0.8461115123210584
-0.12832280115670588
-0.1585857120930857
0.061183924336483626
-1.6348463706498786
-0.6288813456113446
1.84577035385806
0.2092438717408672
-0.09949996272529549
0.8188287722999076
-0.17712718213357728
-2.216820209468433
-1.7920720367368792
0.4921429497936423
-1.0560223582305175
0.1972371641274891
-0.8454659629942933
-0.45488695121633527
1.3255114468861242
0.5578747448825009
0.632684253025128
2.0478446915410227
0.21936883859791878
-2.029209363234963
-0.5128645197680851
-1.5918150948511192
0.5898814165988645
0.9061336749193778
0.8081775368501904
1.0655867433007702
-1.192757455575502
-0.4279118059233153
0.7761492276990287
0.030018515736835134
0.7945868657162263
-0.14435396761198144
0.05924376301164264
0.537927420700286
-1.8440617218210211
-0.12732918112769176
1.4580176701826773
-0.915607099322663
1.5336816380235654
1.996799434867036
0.37156703218215986
-0.5118689965697433
0.4152584359074357
0.9202016280914774
-1.539463023790267
-0.7245273493098425
-1.188650305659039
1.2656353562339369
-0.1338059049176397
0.3805166955314872
0.10281952172276614
1.388844287349756
-0.6611612474837808
-0.9123752639961898
-0.2241024835362998
0.03303580303249814
-0.22621187586248528
-0.5392161631735937
-0.04801174448515363
0.6015602968023067
0.32644407773861395
-0.4747082464552818
1.8059464413435822
-1.602827612191001
1.678620293573232
0.2957700079073137
-0.6684678787122824
-1.2046788489867382
-1.178381827764906
0.38880796982478494
2.294094135566136
0.921801222479833
0.011073670244375295
-1.6015590604815726
-0.41057906129780714
0.27838489295600843
0.8921390806964213
0.4676097782194735
-1.2486112806458955
0.07030933185819502
-0.23607361334059443
-0.38114993926274077
1.7911145657714338
-0.9524319721035734
-0.6012489999123211
2.8837071618855252
-1.0252151025224339
0.5022166112719095
-0.8535269683574072
-1.4464420020947917
-1.2322246072871665
0.6212712947291659
-1.4615261263213515
1.3810060164912736
-1.434412356037748
-0.7595084391793923
0.7855149526465344
-1.4589940132364045
0.7124513824973265
-0.4596850315394495
-1.0967620025723936
2.346092868422107
-1.2604622364559575
-0.30733953165123545
0.7690032007016498
0.4084870668870002
-1.5914467250884616
-0.38925483981259873
1.6227023899709323
-0.061078938216140216
-0.2367486293471193
0.1803215357625393
-1.3283317821736091
-1.4702710649623536
0.901903418963128
0.06018031570993164
-1.0237820250807959
0.9916153883242413
-1.3315040692986586
0.0014940879968794606
0.07203643911830279
0.5291663766099023
0.47970217837467116
-0.5752348486951397
1.1812827737255613
0.13142354645632282
0.45314052103679087
-1.2393169425453383
-0.5880859390642146
-1.4950260599798595
-0.02019204297736901
-0.3724469458354892
-0.04912591626252549
1.887906031941072
-0.036746078487542425
-0.3016625593255185
-0.2841352977134969
0.6802333141079082
1.8521917947812205
-0.4398996893564141
0.42314269508859725
-0.08174442872039853
1.4707079804631367
0.9980042182294396
-0.7499887491147404
-0.4289322795142131
-0.00010969521595951245
0.41623736905728914
0.7290360521698994
-1.0207692660619272
-0.2557908751145366
0.0038509037137979046
-1.5961477816530134
0.0065811673754829336
-1.0733274345452246
-0.2415522468435935
1.2453304078516045
-0.860598035161112
0.4793123004567371
0.3218834773004037
1.2370584531390876
-2.023749795584006
1.5788074958820537
1.2797170376667588
1.2816465479434413
-3.7176325092415716
0.6181360731229187
1.4678044572772904
-1.31191122183301
0.04846652170387262
0.16819051143832722
1.5701430492070767
0.9525047880977574
-1.5206696687511725
1.1674380710501733
-0.16551843972434005
-0.30144304531522226
-0.8381073479930395
0.10149931912735538
0.960074965714598
0.5130006923066274
-0.41358471564854304
-1.6246076440133248
-0.505481079284095
2.8268755121709197
-0.7191844827180606
0.5318308846933405
-0.5215370549388482
0.10289468848893606
-1.6324478979758181
-1.9107542835937708
-1.3110407121688021
-0.26600470905361795
2.409628621541647
0.0875148136082182
1.5649249007606751
0.008810441443091649
0.4642197585478941
-0.6145688420652623
-0.08557814023895569
-0.2642297920876728
1.084567431348196
1.2082468716858261
-0.1807369293470898
-1.123712586242755
1.0455491337730902
-0.9501059215327501
0.3913465250131069
0.9723245382419085
-0.17708870358102927
1.6644378601439793
-2.107344584060096
-0.749126341917286
-1.6086901602119401
-0.18108638491439824
1.242282137902111
1.3742361461961425
-0.6154164411407728
-0.013791536840340981
-0.8821808560371606
0.21019736818792473
-0.5607178631978953
-1.1771085642112524
-1.0891370581286715
0.7901723780069437
-0.7745693329920668
0.896574470431327
1.6997328004843042
-1.3699181219332863
-1.0138641802946922
-0.045675197913413276
-0.6661860081426884
-1.201327899864605
1.7090663305722866
0.08977610409528133
1.05000588629419
-0.3876157687819832
-0.8644126222070995
1.4109494730992973
-0.6638497151737658
0.6540029684750976
-0.39378632228336796
-0.06265470722888226
-0.5902214670340006
-0.09611341625652786
-0.23143088695518596
-2.0987243386339145
0.15044328218013492
0.3828505687943604
2.4658048343370798
0.329705671663172
-0.5589462299986412
-0.3691804981860795
-0.7261095136562277
-0.25585331114107074
0.18529540494158123
-0.26469207855157634
0.7709403696711936
-3.3304893259467634
-0.5467585384322146
-1.487738740067286
0.3014028779952336
0.8871460002697945
-0.9060396804405803
3.7672705146189576
-0.5296155602617222
-0.8246566940251874
0.7347600869873745
1.3878624995165227
0.12101958715423716
2.066687090697864
1.7501354140256244
-1.795145580232331
-1.273114963127801
0.17691400801255036
-0.3213256777352172
0.4906884667106841
-0.926059300823539
1.0697989760805628
0.5609748556368822
1.8132808082141212
-0.5053368716031889
-1.5364912162427424
-2.442329188219185
0.8058817837377485
1.656489729030658
-0.458136933984885
1.003957955548712
2.307758976375074
-0.21902867291307795
0.9060469012040802
0.6103912871503895
0.950389644720278
-0.9481475776093071
-0.06366637067692762
-0.17035562152988123
-1.9969642362834064
-0.26204017409576347
1.2810023170010145
-0.5875763933437375
-0.5142127301681484
-0.8121332173677144
-0.31837447111037376
1.6035167333762161
0.40877573242696724
-1.0283662812001095
1.4216595513845087
0.6048681554485668
0.1763517481035842
1.0736227848876945
-0.0624486811289276
1.8988509911185842
-0.4840272780632676
-1.9175872681632244
0.18164868241808801
0.7679712874533294
0.6360309714140566
0.10724279929218479
0.11671171919477542
-0.6235171032848197
-0.48004478913721893
0.9907930616574908
0.9246723602537772
0.9017209301203893
-0.6358203576433114
0.4602540163437725
-1.2000334561178223
-1.1969351361876408
-0.5528822248573109
1.5632798025642856
-1.2916856355000743
1.1139132973469545
-0.821579849932354
0.2184201242733058
0.7665251884588097
0.4273649959763774
-1.0502652677836015
0.6270061273890258
-2.1483489161565985
-0.23166108784817172
1.020434060848891
-0.8249901869010432
0.013390206142587164
-1.6034903641241012
0.4245303635526739
0.6853683571798848
-2.0794133628938614
-0.6477080945655435
-0.9510406337053026
0.06483130204090709
-0.11130933789995456
-0.08050581856517772
-0.7634851968994618
0.9379462629246926
-0.3740644728673032
0.9630709123973645
0.5371509429032841
-0.7104454023120998
0.9428246110182623
-3.1960682765383086
0.7374498279678325
0.30260965761794734
-0.015977367100698487
-1.6307085445080771
-2.2440923960594867
1.1752117471180787
-0.8662341086404947
0.5625775660903483
-0.5031604252082016
0.3208838030599634
0.04573547166201869
1.9713953319613478
-0.9623216792402542
-1.1925657274053514
-0.5023545080883276
-0.7195657583336167
0.5863552064719345
-1.3414523813045014
1.800995030363978
-0.25193070974224563
-0.1962010665629208
-0.16310197718642336
-0.2953773897124539
-0.77047508198721
0.7519047830195144
0.39262213071946345
-0.7201084725764811
-1.3482802702746461
0.26136907711300356
0.8591442488036192
-0.5589099755070177
-0.9250813606797167
-2.2230507763815943
0.1387375760036117
0.9501582249177144
-0.12779595392262497
0.7344972311987941
0.034879555280963724
-0.6763915287801487
-0.9951987437141595
-1.2789167891376796
0.06400783167856652
-0.21847021699312255
1.456202142654342
-0.40787670354012123
-0.9531360943399103
-0.1084520144394198
0.8533012064855814
-0.49540325880582736
0.8423459523566641
-0.43863213201966217
-1.3588169825761098
-0.04064520654007068
-1.25393392914113
-1.4454016437842205
-0.18590361364180877
0.358017203370971
0.12685302092456818
-0.02097647964883612
2.1980778265385825
0.8893539953184605
-0.2528645182019234
-0.9696569347216203
-1.6449036180752803
0.30345100906434547
-0.09307496406127615
1.183354919328922
-1.213675889974291
-0.18899603265306567
-0.6328698839100267
-1.6426735253105902
-0.25488817212018505
1.0005256107819582
-0.37707400834190696
-0.5604300181904294
-0.35623442974323133
0.05816238235589037
1.0332825382508903
0.9796331711165172
-0.34255009799426306
0.19841586363081454
-0.060645047210156705
0.5006094126910622
-0.8429404258102992
-0.5577645871796166
0.5711247062242685
0.4276953538413408
-1.2020095597728813
1.0209678317405038
0.725240584441916
-0.8948396453818122
0.47227241599035963
-0.024863257542436557
-1.1317078287162263
-0.2698911491397029
-0.725305300293622
1.4359815000618439
-0.3220508808709774
-0.2891744189400106
0.10049551596364013
0.4502935011691223
0.44977163280431626
-0.5257001030418096
-2.251183583863277
0.1874905272620949
-0.8602118559281337
-0.6333068509611778
0.35539936242014264
1.3613234879877878
0.9821352436688102
0.9597430695418653
0.25704337235684466
0.4899181645814164
0.8355177815964798
-0.47471021207908376
-0.40637060679394044
0.16206076019122428
0.6494264290244588
-0.2060354455860274
-0.49262171148832096
0.375945127108
0.23717216820725434
-1.2383995420418665
-0.539790251784087
-0.4808704930604003
-0.675964026939131
0.34322399799935266
-2.010214903555191
-0.08476440196260777
-1.5268140893465372
-0.22740437244245545
1.4595124226734784
0.951399620740897
1.2162525771282986
-1.133822294584713
0.922231707498079
0.7746136256111157
1.0111726948304929
-1.6496293787977143
-0.25089134109609135
-0.6665518697812923
0.23883307462164147
-0.18758167639650505
1.021004068466753
0.22641918996129057
0.5662891957969051
-0.1706667960428849
0.17212944708319822
0.06074588851970337
-0.439912370561338
1.3756373267695305
0.7367533771744538
-1.2678985256655213
0.07220864055765808
-0.581107062175529
-0.37838696136208966
-2.020545493121091
0.7349567506906974
0.6587661618920738
-0.8492854014953968
-1.7819977560070412
0.03411922072581543
0.5200081588530021
-0.6271756881015804
-2.6660102088882924
1.2591662579173875
-0.8726728451754606
-0.29136163832419515
-0.9710204052175516
2.3605212864914003
-0.7565144048667339
-0.24829080229463363
1.0625177946922282
-2.16064049410913
0.20804991479626952
-1.7169580317818682
0.9802890937961899
-0.4748399940795762
-0.19707740937121535
0.0602504583369061
-0.3642441959776232
-0.3287891671491516
0.23453362343169668
0.45364965960748943
0.5226232795923015
-0.800304902870655
1.4994434344045622
-1.6601853164846354
-1.1738885064505291
-0.6657133551181242
-1.5224266468365202
-1.2756357068003392
-0.9942395450455036
0.6704767276990233
-0.9611754391266589
2.0432010587731346
0.8317963037517807
1.7321943149238448
-0.3781776427014372
0.5927528883566037
-0.3070331373479045
1.0484620130287312
-0.17383006724378053
0.9681455022829334
0.3855884281483939
0.5353100447943491
-1.0329926235694697
1.3491996793509815
-0.18286028795119974
-0.550143815438346
-2.1887495322147794
-1.3657204763441646
-0.23647639200237935
0.32998907382974585
0.0737575715288789
2.01058595602697
-0.8270675096704041
-1.1946485569670373
-0.02891542746832701
0.30250944938104124
-0.525282577962224
0.522916158324123
-1.6110549495064563
-0.019660600983906814
0.350741730469741
-1.48780732942956
-1.1049783144632916
2.0292072964394867
1.2768114425020196
-1.1993719171549737
0.4093282037854233
0.3297956106681585
0.6680588581494459
-0.09699809938884145
-2.1718184951562263
1.888043410501593
0.10132573675518904
0.011327871980691967
-1.665407003826385
0.3874874829161508
-1.1406421606068486
1.427109722516387
-0.6990609926558792
0.7316871211596545
-0.6362718440569833
-0.2646224457216132
-0.5666159518284977
-0.723702061488247
0.35160255169630605
0.14267933059084717
1.5713907701391268
-0.15071530001716285
0.16681941417907023
-0.8904332810808006
-0.41263763114553337
1.3224512349888922
1.0442903110090889
-0.6737392898870294
0.21245897877891862
-0.22664589681528108
0.6609179972150753
0.6383503273519668
-0.36912918880696133
-0.8397239344894816
0.8041817500651974
-0.01206330650138157
-0.12364794527657931
-1.1475290347048506
-1.1612222071898162
2.597756369584648
0.4718094113873176
1.410868351359053
0.13667275543529805
-0.656749734668971
1.382898063507675
0.4808416029778199
1.4863625001644927
-0.15099135348733433
-0.542679167548734
-0.9290248731562843
0.2960101333866165
-1.6538175281801726
-0.5238680740804483
2.2545743594202845
-1.778653003073487
-0.3919916090488015
-0.42422854304618274
-0.4782026695866921
0.9825708131684902
1.403809398956928
-0.5157337491883093
0.9367572776949216
-0.8804019512336139
1.1644527194079493
-1.0764825526962156
-0.6209270933574647
0.10331490070154373
-1.3492703395165446
0.12670323333287142
-0.5198321981640777
-1.917848146518626
-1.2292069012602078
0.5611837178436401
0.7384732921186583
-1.8833689787056278
0.30541408151362665
0.46986265276826883
-0.7685605546800734
1.5060045589404398
-0.4291272867232705
0.6226210920804397
-0.2086378378988457
0.5297203668643018
0.18061900139921194
-0.7728945730096171
1.0856234132106566
-1.0337107105211514
-0.4665965333455718
-0.6413570864952742
-2.693940721050625
1.2219272032652122
0.18733352973633807
0.7001173592618852
-0.36548096606067837
0.3950831604171019
1.6103186497098518
1.2918543952629944
0.40708946931227147
0.6581689129546913
-1.4090722775235869
-0.49219247545196504
1.9055858474626515
0.414276907811454
1.4565893188617403
1.2487282803802742
1.4939560373081902
-0.6695057972438129
-1.7079404299571026
0.004546083399147692
-0.5736088975888244
-0.4269510840317266
0.325508457144245
1.1125747554156185
-0.6580454311351741
-0.8603521704208887
0.5690215199060802
-1.8956628320627475
0.8656790157268766
-1.5864872962109886
0.8461328941320294
-0.09689073708880806
0.551328790318271
1.3155381353491484
-0.882672020912614
-1.3416912270721122
3.188356955180846
-1.684828797635425
1.889908605194869
-0.3219791725234579
0.14675844686322365
-1.3597015564644372
0.8120448553261906
-0.43421326941145266
0.5592912150559293
-0.42887251942350996
1.2784605522041266
0.09737544029081076
0.19413626439579082
0.4508388162042073
0.3375388783038629
-1.0078167576274044
-0.6328808477143167
0.9464706220751048
-0.3279205142490421
-0.3527972378648116
-0.7489596232066309
-1.2358079793806929
0.5517653886054413
-0.49357460361728367
1.2977609889721207
-0.015429813690201664
-0.3565889756474465
-1.4150130549416995
-0.8366068030355474
-1.6112940333696937
1.2729561064893753
1.35148879582793
0.41005100458927735
-0.8810004666707689
-1.1153243698745452
0.16609012589381345
-0.8969147938821638
-1.0546477390066435
0.9903985862215275
0.10268079437839077
0.5003953361013554
-0.14098365037270796
1.3228285723552629
1.6015294795101274
-0.457361234451877
0.4584261092987705
0.3658962148619156
1.5492527898199044
-2.1158516911996896
-0.8034981929259718
-1.7402801022396803
-0.49185745042679346
-0.29121156616898314
-0.5956952484859538
-0.19804301984750877
-1.1046822167149555
1.3380292089486694
0.04516597355471862
0.8735013727218242
-0.9832183393720069
1.934753756334442
0.08088093529773123
0.12020311043203027
0.2801574457730351
-2.305230654189802
-0.6570189758084782
-2.727502324346581
-0.8981053442185225
0.794023669238751
-1.038681799954472
-1.2038226516395372
-0.17256242549410855
-1.6971694371173145
1.8717859276863078
-0.8965621392527258
-1.0524034732970526
1.5932788902921091
-0.3226684682869662
1.415026712695571
-0.25652011005456316
-1.0495709628383108
1.973222768106786
-0.8837883273866248
-0.3960659760875028
1.7826007195523152
0.2947313714632668
-0.6525537243462602
-0.12785097290475103
0.5041156749861657
-2.399277463168597
-0.4801199276483565
0.5549672582389292
-0.8695575567958813
-1.3047944635510893
-0.15714972839770425
-1.8761975304188816
-0.31176327611989324
-0.4108297644974551
0.4225358242525078
0.12650297825366255
-0.3448814282919326
-0.8754634213459622
0.6823037262080333
-0.31119748683774956
0.1780871139123688
-1.07753106683442
-1.1583226141798435
0.5236100437775417
-0.04272347117221829
-1.9869100670054336
2.328697890948165
-0.8120838588610101
-1.5605250904797943
-0.09809840591807036
-0.1703307354354278
1.2450456426969758
0.2819556957291982
-0.8159657350489303
0.577733652289821
-0.4524985365774649
-1.0781963404344286
0.8491451530563858
-3.0607293306698313
0.42616505266079885
0.2006776440330055
-0.6892575518697195
0.06306617494326214
0.7383148178611286
-0.3617311915151616
-0.2135035074426407
-0.38261601558396596
-1.3074013353821485
0.007382493544627087
-0.13707646005331373
-0.050999154618352076
-1.760525956630573
-1.6874806007859484
1.226410972033229
-0.6684706912270323
-0.2491557460155033
0.12690280822757505
-1.105371766908497
-1.3533097508013203
-0.8718920572339072
0.7644106595267094
0.002131427844900494
1.7832171829072314
-0.5626030470586466
0.7177891920755703
-0.05028452183755752
2.5015826157074454
0.5499602694047108
-0.33401862666615434
-1.2966814741892985
0.9556852680390348
-1.6383050102138161
-0.387280920048949
-0.38926836730054704
0.378483287847197
-1.2770387111065544
-2.1353458187128087
2.1124374596021123
0.1077802675998091
0.3560038869199783
1.2832415928410186
0.3497933199308649
-1.5596827818683434
-0.33603042617166023
0.10870065173562662
0.3709123501677158
-0.5256460562929791
0.37160098363655897
0.6491311376343782
-1.625905110863999
-1.2387079896857742
-0.7578807555287981
-1.0912830910261488
0.35022628548642143
1.3667859938829752
0.675009363024561
-1.8686908833196438
0.18751888342213768
-0.20070052525494592
0.3068700904193273
0.04769275747558551
-0.3167507083371343
0.5100918835047313
-0.14149825103506097
1.5118200123085714
0.9026313474153408
0.7331329981694332
0.5953489662345581
-0.8774320234023154
-0.6708097062441343
2.017145098263939
0.04434322681766996
-0.7808380814523705
-0.10841665698174091
-0.987646454329117
-0.5230243562618356
1.3144278331186696
0.9880888542385964
0.46610415175273456
-0.1010155361535575
1.1004574564955127
1.0958112507738194
0.6565719155445896
-0.03446232835809037
-0.23213342922846816
0.5361601835286091
0.23136965156178857
-0.5576847781264518
0.5261283975821915
-1.3329261317602783
0.9685390134385623
0.4404731104693156
-0.16465139152860828
0.11887825181334256
0.16768796763197605
1.3723193644048368
1.0897681681899387
1.937355850655996
1.1122306632430299
1.5344696115866892
-0.5327126621664249
1.4347632676575433
0.14247473921415957
-0.9317815091509762
0.08010168020540298
1.0143322701783009
0.012068734941878781
-0.5824969797216967
0.2253541795793501
-0.6907851596181441
-2.4307148987683065
-1.146088577670328
-1.118340850602816
0.3576459442585255
0.7596442630909124
1.218557378143656
1.3102929888705137
-0.8374363904740627
-0.10080127184716954
0.062148427183288994
0.2565351195656889
0.6705606484738993
-0.24150358558675714
-0.521160373131844
1.5274580047678796
0.9910950085102379
0.16393260853913222
-0.9284456117076584
-1.0738233173795988
0.12644969153070265
-0.7658071822458554
0.294868413080339
1.2689974395300208
0.7180730446647037
-1.8350707737827023
-2.385753295722818
1.1732191787087434
1.8638037151729459
0.010703537272473078
-0.9603517423579445
0.6072640493930206
-0.9658871806187345
0.8952553358238621
0.5417724348276767
-0.5110827018752344
-1.2636397820909633
-1.0625531723072226
-1.1878162002089412
-0.3916837640113352
-1.2465667882035043
-0.38980567780407
-0.6227107053544751
1.097992365263668
-0.05037150449771067
0.3307832609488756
-0.3301539212875571
0.5769025012350328
0.6284906403129021
0.7280923806245425
-0.08288019749764762
-1.05410068421443
1.2802979567319415
-1.295531406717343
1.0141832152003278
-1.1512702988012058
-0.5427346240431089
0.5123845412511812
0.5102230748764937
-0.6151265629176373
-0.28859534222887745
-1.0802715894264745
-1.4998009505881764
0.6342081504415041
0.46539493781932545
0.9165757066833364
-1.6828465810605484
-0.5048516714530584
1.0629106783211166
0.7552357862196937
-0.019018113748405136
-0.9140118889004879
0.37085547349203457
0.2416732119591702
0.908913182606468
-1.2007058856448996
1.186419174344343
0.13201366040459703
0.23975274395986815
-0.21616314275040494
0.8925834694775361
-0.3141370818972692
1.6642139135214258
1.3507420773915257
2.0983014710347674
0.977815631211044
0.2593436367905923
0.8042378343404231
-0.6511375833361268
0.6200276338032172
1.5005704269332316
0.02817246799012797
2.0781148986006905
-0.2508521311628823
0.08527727423270125
-0.2946488258353154
-1.2338517188005012
-1.4416250158122306
-0.8053273807053665
-1.0401170214087752
1.588812039681251
-1.0378850265998818
0.1511709944232357
-1.0239085146658164
-0.46303182731818776
0.14699834047864044
0.5967147931280202
0.485991767830726
0.5427242596746088
-0.02406642641224568
-0.05829828811614177
-0.26334406183146897
-0.2966138493181428
1.6109052996871587
-1.8825063953328736
-0.587544495180095
1.1322592179803388
0.4503514739842156
0.37456519863261806
-1.4041661650636228
1.462478723066963
2.075266492965275
-0.3730799611945994
-0.4296833201104333
-1.2208922828361433
-0.32276583462798425
0.1872965036003064
0.06508141742087187
-1.372590291294448
1.4451437248153016
0.6177612442642729
-0.37405820340233903
0.8498657467238925
-0.8545019320860624
-1.2013253661644636
0.23895606706716851
-1.2380073441460682
0.3498504667343116
0.3039805397543565
-1.179670873614429
0.13500314951446163
0.2547447145494092
-0.4450771600241268
0.08256244174664405
-0.32006668442548514
1.1124181349498892
0.2294010436546248
1.7099102499641998
-0.41203273905711324
0.28245967567960373
0.8135899510559289
0.06831848207617693
0.6757076265823675
0.34954878533375183
-0.6989792116786586
-0.3252683532615887
0.6164923433888533
-1.1278245057313543
1.7615350465089274
1.6654469265433856
-0.6370653772561549
-0.9955057211652216
0.37724930544719243
-2.4374896153607475
-0.47131911216349154
0.44318041447589207
-1.8836798758712865
-0.45099576126626995
-0.3262984628526366
2.495497581475023
0.28143997352323535
-1.2343276760272255
-0.3125862019836758
-0.869165309426961
0.3489312029312449
1.1457141434693117
-0.9084135491130425
-1.6241091756770367
-0.3385175780449678
-0.4711854021846917
-0.4532606690778496
0.43241845078913377
-0.2137333355252581
-0.24422141836443678
-0.8463725057729583
0.5653887783217184
1.2902220498653487
-0.8966509649241091
0.7918019822982268
-0.7721384768649604
0.8021559886435118
-0.9657656488890995
2.336224934394751
0.47602903056313917
-0.03947812279318911
-1.1897742311749258
0.25025914169605096
0.8780432057882466
1.0742654320628058
0.9476443067495595
0.8133321405894464
-1.0637457453105847
0.004884160131382985
0.04850465421751178
-0.5875558153042837
1.0331340413478565
-0.9360970365811118
-0.515460598370203
1.1590559525461495
-1.077856500874636
-0.2023624506411715
-0.516052823639503
0.941210326879098
1.2544102049131323
0.431036731778858
-0.6258549381064575
1.4905002565628627
0.19633053572454626
0.09461484216125465
0.5417062061393767
0.3202159582107736
-0.8427082592387327
0.22601123677055268
0.6027689880127189
-2.4621866032399184
-0.13502157621363914
0.7495097891129758
-1.582601565860171
1.910193529359466
-0.9788850678347965
0.06710708827481893
-0.1680847203938789
-0.37436404085619235
0.13401050726451413
1.4742290330205567
-0.09188567949657618
-0.4130841410041159
-1.4681228169759013
-0.39609693903613435
-0.1732096960829281
1.1666942060998156
-0.2680619150711645
-0.1962819613348328
0.362738454716665
-0.7222268727753881
-1.0451314978418946
-2.446133172988414
1.1383555548143136
1.0189954183328502
-1.9055904464450024
1.1901493676499495
0.17228911862320812
-0.19022695604148157
0.947019846005951
-0.2696722724392842
-0.771219837354641
0.8950380967989371
0.08465882735418778
0.44438287902869866
1.9419688139808584
-1.9655045337930104
-1.410882956640124
0.6238185527120836
0.8211265254493154
0.8476172251109226
1.2305352165811787
0.04782534934959155
-0.08283722333908461
0.15324085743254595
0.7597604860675629
1.9141803533588144
-0.09713924276410241
1.1518039149810608
-0.9429079286907058
1.655763050449106
0.7909914133258805
1.013197151589344
0.5675205775212976
-0.6005040602365477
-0.5687610205931869
-2.4071682385138597
0.033291855970108315
-0.12345554797974158
-1.6446033122592025
-0.08205409874555535
-0.39807380861405245
1.0368806424416759
1.1615980895681388
-0.7525438233728868
-1.3082388282829136
-0.30263845733365846
-1.1355228912629536
-1.1351803047529043
0.8540920467496844
-0.8261470550175564
-1.8130062097398894
1.3703458018877068
-1.8883884533049347
-1.519450446642734
1.5546880435856145
-0.044287451760975725
-0.2744844549449767
-0.18251939561225672
0.40268129930096147
-1.0514078104017706
1.8681872486268871
-0.6796851248123563
-0.8406272603131361
-0.3636999601691546
0.38606533724852843
1.031761091120567
1.19691205852686
1.2872295570280872
-3.4665985434258038
0.9951303613448094
-1.4328130596382307
0.7415733583147549
-0.7687073253598248
-0.874296032704777
0.5749002499604631
-1.6221622080116314
-1.1226325279876481
0.5460421207148073
-0.0088730243646096
-0.9162004831844373
0.013332628889987869
-0.3051302750939815
-0.5882019523426979
1.1249668260650771
-1.4733571331093616
-1.4352837164752845
0.3342344341512933
0.03240484275748971
0.3339883490972923
-0.02490797541548514
-1.5491238511957566
-0.8289753213738601
0.3225921628093858
-1.7412052690453985
0.3714090781953072
-0.41616095557321764
0.17678237937343094
0.49333455410150867
-1.4795794310845591
0.30416296875903603
-0.2101229767914507
0.079972324095163
0.9899007996823178
-0.3594427506945748
-1.4098768227272267
0.699981261076274
-0.1309846951155268
0.6672565611893231
-0.6397277740154126
-1.4267749935199294
-1.1201034789343813
-1.099620310817658
0.487389317607118
-0.6527374464120929
-1.1235072116746636
-2.405784387275959
-0.45606313377678265
0.4930473872823639
-2.542571332351846
-0.3553223460377271
0.3900491636388434
-0.09970128114760686
-0.07411420613783212
0.8952402182028999
0.48623897786728637
-0.4129842979022207
-0.8413631472482296
-0.3432622070488919
0.09211327168904165
-0.515162441844457
-0.8016700624378362
1.1091445808843476
-0.7748163589427144
0.6307664971873274
0.8732921735604223
1.017927108430807
0.994884165250522
-2.0316742872837508
0.1241662563509758
0.8830306288030706
-0.9254031519433112
0.16166950185226944
1.7938894032358943
-1.2158459215465478
0.4165412545171865
-1.056782574938942
1.0237656413209468
-0.7023698865950341
0.07617731258624949
-1.1676539982809733
-1.2497065684416055
-0.4018642075885053
0.10794493355486942
-0.30271042091532796
1.1966607217298633
-0.08948462133607857
0.6365290750077132
-1.3516336940773963
-0.4598618025274426
0.8209926675960131
-0.2096072525213899
-0.33363426739149477
-0.76244580960884
-2.115391089006414
1.3908597499063264
-0.0016408618462939765
0.31872912599475534
1.041188617180855
-0.04066443172471204
0.6999043584523771
-0.5163038482075758
-1.3124528658103478
-0.8860496983853603
0.5477270930675538
-1.419042723017959
0.5662704457949622
0.13910219436548113
0.1295528521114276
1.50564778068786
0.8246943280085105
1.0874410537911303
1.0297422924008552
-0.3924212150063686
-0.1442847503496395
-1.0426268497447635
0.8035818342915888
-0.6860916285032667
0.6508787944126936
-0.41327322856385074
1.257358783834969
-0.3866211055619247
-0.24487814340818073
-0.6168312621852791
1.1912182203031283
0.23386460819898305
0.2935895489172909
-0.3996912895285962
0.32568298389148626
0.16240399910760417
-0.9157079408943724
-0.624395356987422
0.5461362989566243
1.662333445103676
-0.1454444768815976
-1.0839541864543951
-0.1691691894190886
-0.7807891003858146
-0.21111488384007285
0.07551585531002251
0.04367887296168773
-0.14907042143874416
0.26898591645152925
-1.2746620064207728
-1.2848052346653789
-0.3455348767483902
-1.7671945465992
-2.421118372254651
-0.19348407401182527
0.2732066046709761
-0.3361210057927182
-1.3725647508387246
-1.6861917260178028
2.3275429350978345
0.9404417664400506
1.248124987752698
2.040323922096283
-1.3686235148317678
0.22638464793499866
1.049047426654703
-0.9767654684180005
1.2891806175173108
0.8640984820656723
-0.39811504479356147
0.4919758293671535
-2.4255788180807674
-0.05384524431635593
1.2606691390255396
0.1936573088273684
0.33249943694398093
-0.8649729962734458
1.7933795619074744
0.09768904331487094
0.18312509957874076
0.1333729332559617
-1.5833219181786358
1.8528291992541805
-0.8284434696908994
-1.6284200037163374
1.4521889554356429
-0.5549331211841448
0.4163771828595061
2.0370575930650787
0.08246459326880709
-0.8724342147688813
0.8039578293477491
1.5449413845986726
-0.5869972563063838
-1.0902952900196166
1.797049720328144
0.8489344459191533
0.6340752539049441
-0.5312160606616303
0.3919912836173691
-2.0227939854369765
-0.5064619726507973
0.17036586710071602
-1.3686570783564536
-0.973172550411802
-0.1866679506532922
0.896198207299481
-0.405010949965493
-1.5209889826486402
1.4096147007840347
0.09720401631895297
-1.4908674893346348
0.728317781642935
-1.4302735124218773
0.9240711023578556
0.8497656000003918
-0.7113439995406143
1.7163430118846217
-0.3175623443709091
-0.43963044616978764
0.07394689902017951
0.1498762330897052
-0.8344403719280838
-1.2386209399162316
-0.616354528207678
1.7709315590194057
-0.31082171066574665
-0.5863519165786569
-0.8597486534754591
0.8910249533410163
1.629865644530154
-0.5824511697007654
-0.2899802563336406
0.36772988883831237
0.22969303088907433
0.6067615607173946
0.9927221079470102
-1.7919139356055422
-0.06434654716896386
-2.7203499621626523
-1.263583125012084
-0.08826091996522396
0.5501836820623817
-0.1055392314755084
0.44258362087610925
0.566545136254618
-0.1526958458762244
1.7399707466940564
-1.033932032219931
2.6233193824571774
-1.769705819311707
1.519365323853708
-0.6004566090676839
-1.1020778383119914
0.10663775123687454
-0.5677414263958367
-1.115262609854004
-0.9854731860002472
0.2366241313850773
1.3056074180469681
0.5925640320894736
0.35865677998092443
0.9668983470192437
-1.15589510530657
-0.4952447693485506
-0.5615880156786139
1.1304378446936978
0.6151066934585164
0.34612912865880224
0.00807139049160911
2.231692713163668
1.1474382380157857
-1.3187899788983048
0.8840007274772218
0.10998932291042197
1.2370564175638605
-1.6890916341849085
-0.04010253642669916
-0.44673010213364406
-0.42546106963170327
1.4396112996583001
0.01645920813957938
-0.04390558048713785
-2.0027922848034163
-1.8038692503707658
-1.1771667650178528
0.6547988256309188
1.0471943116274973
0.3207898168341367
-0.8086005142774212
-1.1609588248115976
-1.2320881671977006
-0.4601425500231305
-0.524030339982667
0.06154390781445037
-0.4198839278645509
-0.04088151315849899
1.068969881980336
1.233542656910648
-0.16179083013297463
2.273496105571352
-1.071010266005799
-1.8648079278618606
0.3392543270732091
-1.3024936970299608
0.2116642022859539
-1.1539078582025004
-0.31536510558245107
1.8393926677272239
-0.5032182078299344
-0.20808181559050326
-1.151769101529283
1.4169997904031153
-1.2520442018160174
0.08033238506869936
0.7848470889784981
-0.9262258284377001
-0.5749600584093342
-1.875738982907827
-1.0347285936781603
0.7638483473024443
-0.5198987166479438
-0.23387064680377093
1.3292356837322818
-0.0257344629452127
1.188755241054425
0.1634603393281133
1.7054667257441698
-0.012839283617056838
8.365268909320129e-05
-0.4312690673684225
0.1666453041971517
-0.30039261096897024
0.7933358683462145
0.41505293997698733
-1.7146971048112087
0.3228624045403437
0.9405155986535694
0.4150333531645791
-0.10150783545581696
1.1619068476728112
1.2972067912470784
0.9726984274904903
-0.2794750053119761
-1.1009294356065
0.13883673422933968
-0.12526592641879428
-1.0257747670226822
-0.9242809511817548
-0.9582575664549329
-0.503815554210366
-0.87247254795782
1.2081104928301056
0.9343103354987089
0.8629022791907648
0.115005042950472
2.3199085616886235
-2.4858435411942974
-0.8494718541482429
-0.47641435280948274
0.9232831853828833
-0.6535067264880732
-0.07686979975882487
-0.6020451241518117
0.07635496609002553
-1.7089457371268766
1.3042235387530765
-0.6320708890940099
-0.9763776570292392
-0.5537635027658023
-1.1714421928553889
0.37277993493550626
-1.8119152730347776
2.0165307674322817
-2.5525137065014896
0.8088119177774126
-0.164182818025351
0.16935588273612517
-1.2809326288227791
0.22544820123377315
1.024331652671214
-0.7158374750668801
-1.6926928553808576
-0.6572146577679698
1.2144255525384062
1.2538879428648175
0.6582957379300622
0.8303393736205316
0.1507823971064439
1.5478923221571832
0.7926299243873883
-0.956066522144158
0.9005202483017004
-0.008868787240034806
0.4657620893768906
1.0238909535600507
-1.1088808746310432
1.7060661390171132
-1.1671822003634678
0.9131117943025798
-0.7098555662865818
1.3155707818065412
-0.7490820661175555
0.5077838149212762
-0.21607258911207336
-1.896437632401339
1.5746462454936399
0.052687557147171125
1.299748934122448
-1.5254882404870627
1.0295335285662415
0.8278319390435311
0.1320114880712413
1.2202590734327188
-1.4162066758967045
1.4205973517988755
0.8309243559482204
-0.9437473347653647
-1.3446973111452751
0.3148581648988366
-0.8723129449272558
-0.2570552913760838
0.39657394137905394
-1.1158144829610466
0.9580522265613886
-0.9306889941541665
-0.5900645732214674
-0.9206276994359781
-0.20588120663637252
0.3547993039938591
0.4390485414636462
-0.3174335921493579
-0.3367887488872025
1.0833780427758444
-1.271106750937211
0.4163075312037296
0.5440366887221293
2.0212677093388396
2.06906308173455
-1.9643138974495553
-0.0379582226505236
0.06212529709513154
-0.454660744555155
0.1302811966028841
0.1166164660157177
-0.1419552423210075
-1.0034084003416508
0.5622615185682895
0.6808644530427711
-0.5503359002868616
-0.5799715148011064
0.4133792439707062
0.7613273443985853
-0.5650640334919156
1.1475268154887006
-1.7605184822635767
-1.697104164353277
-1.1693031494835813
-0.5771558820997812
-0.6759622541262034
-0.7898495098005387
-0.17198505411878087
-0.5159049994268678
0.4894710655026124
0.537399108408931
0.43478143624036025
1.7979975717482843
-0.8237544958425113
-0.03606306667873264
0.2111363220364557
-0.053135694681734125
-0.9871462963216063
0.27557696193904485
-1.4531025423400548
-0.9730302393344652
-0.43667242060163514
0.5779432426528788
-1.2229979138146008
1.053223847915085
1.312329178797049
-0.5627723433966685
0.21006513103308788
-0.129036839490431
-0.12957691150589148
0.3146275690135052
-0.07510090610130628
0.044792110351480584
-0.06955302530778862
-0.9714556004494104
-1.238831376893135
-1.614637962250327
2.0179935345553695
1.2233037409875642
-0.1399232580639344
-0.589478737993432
0.06618472464156773
1.0334050864473725
0.31315391867088077
0.8127192875925585
-0.4412107123124942
1.1693739488615227
-0.8882296829797907
0.791443035617115
-0.08843132891501633
0.23639211864225051
-0.3093996686671085
-0.5154034502589162
0.7678294744125684
0.3734935304256756
-0.7987587388436034
0.16921812360931665
1.513420017103075
0.028850080355703616
-1.006608722993901
-0.6957412046771377
-1.2609407948253717
-1.286415735784982
0.7448519636342386
1.0474829366522462
0.7185539092549015
1.145581758295032
1.1284020519258702
1.4404664871662727
-0.040311610374213734
-1.0107484917616383
-1.084131617162357
0.17440927769744463
1.7095941597322395
-0.1811259425429451
-1.7432178962136158
-0.07422584929555592
-0.23510065910911357
-1.200109912653884
0.07661127139431696
-1.105155266838015
1.689725548336346
-2.3044997138398426
-1.1662314266229898
-0.40253848996864944
-1.7287486130379661
-0.13107726795589167
0.859922952216898
0.5903919092936395
1.0757020343492836
0.9223384246051098
0.46949827593970545
0.8959783061979587
-0.03726475007237959
-0.4356933767314281
-0.05512639409936986
0.6210145195880836
-1.0272068041457219
-0.780837807589622
-0.6715386576639036
-0.32224192766881404
-1.8153018613338132
-0.23428327417411923
-0.3258821075525729
0.24776232981503046
0.9765234408298298
-0.7128683317874817
0.2802854603160782
0.7329270616216167
0.45524634179260537
1.1202237755584818
-0.761449639190034
1.5519381119619475
0.591304273656647
2.5450136295319403
0.25185692691370537
2.037790755312145
0.5757596570255016
0.8760917947252311
0.15127462820937013
-0.5819953671012585
0.5205560788569045
0.9037026554325078
0.7673954653143888
1.8724637156372708
-0.17028700937904456
-0.18416593336280226
-1.0184323199379812
0.7109147337828883
-0.6342700221186526
-0.5290282894988886
-0.02283252586479355
0.2894860433897033
0.3639522321891304
-1.158535716162577
-0.30282603714353595
-0.5214242288486234
-0.6936187036179522
-0.7731751689836319
0.36422616967245747
0.36032365379452264
-1.6019674876309264
-0.7771075388503806
-0.8325788827512012
-1.052367105967035
-0.326750477586552
0.5525056962591173
0.8264199450213632
0.12174411951774856
0.12329867467194756
0.7282309923983273
0.5137091457394948
-1.1735760162512294
1.6205175044602902
0.5098227940089459
-0.8717330058644437
0.6476129886672491
-1.5836668966387133
0.47019106942750133
0.724159167254074
1.0921657400888425
-1.042059318391251
-0.2695986980919446
-1.4536372083233415
-0.3741976651579276
-0.8330250165998327
0.20089906352016496
0.9038288942728774
0.12622108214959746
-1.0531451807588814
0.9362390560692677
-0.2975134815290246
1.2565133937378237
-0.745019884920278
0.2212205808930891
0.3999544016858814
-2.1810880714969034
-0.7711655388609706
-1.033317782551905
-0.4105025448912511
-1.2975402499054054
-1.4257120839915396
0.052302748731121326
0.5748806181251207
0.06682103950171411
-0.12700253331924263
1.4597237882347107
-0.2023963080162447
2.260554284173415
1.1892875111187518
-0.0991143464869662
-1.211328767407038
0.5788181619939748
0.9694472748906371
0.49306820294158077
-0.3160345963568584
-1.9923570525066245
1.8631869896208595
0.383693751830997
0.6746818655045635
-0.06589942132209578
-1.1103714987843591
2.5547952018314057
0.5582914140302562
-0.9485005981580877
0.3084095744929351
1.1350492890987252
0.41291590001887174
-1.2547179462708475
0.580837647143182
-1.6913739212950916
-0.17791435256084775
-0.2494738550961917
-0.8098808721679516
-0.056942387135268675
1.2807203834084826
-1.0811861769224074
1.2947670079199194
-1.9310858944438165
1.2445273041384735
-4.634894296115919e-05
1.9319886123830277
-0.7071443446225643
1.6102202199754783
1.9000929867590348
0.9110969736511795
0.2077204420259177
2.092593735259211
-0.4748843208931072
0.4540243732128793
-0.28517119064535257
-1.4646738822056176
1.0013020789300902
0.34012956165284586
0.5317092404236576
0.4991079300827125
-0.8945156205563517
0.05042242524892642
-1.2877039301328292
-0.9897751540284839
-0.4325825845840198
1.8777055659384199
0.8717068060862184
-0.09649133854659821
-0.4019466212263432
-0.5188495799824901
-2.4913538349480953
0.4174578916125072
0.004800418198716755
-0.9613291170779996
-0.007149489426635057
0.35477556202722704
-0.22841784045694302
0.7078350957761453
0.16575379613655913
-0.2747426065048986
-1.989879536616218
-0.3545687995084897
1.1636200998133386
-0.6834378441928616
0.5259799115504342
0.13331040393592333
1.9733215520999923
-0.7270682282412209
0.04962258831431514
0.5943228535570504
0.9452153311319127
-0.7719126539105463
1.2187348864928829
-2.2528081710412553
0.1868941572787863
-0.26682454849566795
1.3305321558252834
-0.3694694531093619
-1.2906546757235486
0.24577897874706267
-0.4788746303437861
-0.7674493996526981
1.084011164071273
-0.46140131770308784
0.18935600612361864
0.08365873539560528
-0.35134057333699953
-0.34640892360425607
-0.6287845566268233
1.3470897258967736
-0.9834669500665203
-0.006186820281381639
-0.9494577934937823
0.5079357405044741
-0.2097688860201492
0.5056739985366387
-2.2315838330723747
-0.4173005732137216
-0.6321800982755278
-0.6049536345315507
-2.1096304570535294
0.7549056281346354
0.8530963267869432
-0.522303041034538
1.4948431188107703
-0.7103529994006927
-0.5439301073513019
-0.2966466943927687
0.20253733019630857
-0.36147310719501935
-0.18344945790148057
-0.49625415766295566
-1.4913008793981428
-0.6604637085446639
-0.13741172459241202
0.13694530394749668
-0.4269794501244747
0.020487924567192926
-1.1503352699398408
-0.7166951377124738
-0.5057296316310328
0.35394179377607987
-0.368071979640143
-1.3738386723285672
-1.2851618520690145
0.8138030951610975
-0.9866765896927668
0.9411530333603181
-0.6140030029511832
0.485846470082118
-0.31146360984782573
0.7400094650627577
0.4105577297692767
-0.4799262891099963
-3.1363660142368737
-1.1513888341827745
1.1757813940003106
-0.32885050099714885
-0.04602413457265829
0.7001659040336418
-1.0880846443761356
0.9153162796364588
-0.4576447051770895
0.16810269883399476
0.9091027914289292
1.428666174727446
0.13528264212640473
-0.40574444595958836
-1.1472932151948292
-0.29089986002517126
-0.7604712118546125
-1.149537894178082
-1.5966438504733962
-0.16291368699199557
-0.46097703257188005
0.25453586532224626
1.2370396893667701
0.12302728842087092
0.9189498986287401
-0.3785127885575916
0.1247445592354677
0.6390870044754364
0.13285393600316273
0.671353148180193
0.08737535901916298
1.7313626539850875
-0.05836667269219956
-0.2168464278117681
0.7325325330861557
-1.253520151733706
0.7879152026938865
1.5863982067360287
1.5800121182595919
0.44487091065713746
0.06888925032669374
0.048449329506248605
1.1817331934329782
0.07087010659845587
1.4493299392222325
0.43522161650733937
1.378624426852821
0.19269660240034592
-2.067270243760743
0.49659565443964504
0.24973308953503914
1.1000101640552924
-1.1899786819975033
0.36618952002307514
-0.18663854888490403
1.3632192496493225
-0.8550685928453797
-0.6201556558765505
0.3941965138259945
-0.18681380648187176
-0.38711204318111625
-0.19672603447072426
-0.6775930038850354
1.496762125643648
0.5780820020500042
-0.6377791848689741
0.46259992996295635
1.3241411724808028
0.47567941190768265
0.7081544309690909
-0.2306089975595913
0.2179588942497317
0.5017510952420611
1.1939897056848936
-0.5366972726445997
-1.3153434728859335
1.525729556709141
-1.9421618584768385
-0.36058455377344684
0.37135321857848363
0.6207976245869239
-1.3458700239259673
0.8465074560796443
1.5554866592092673
0.34834464673500365
-0.3993056459234119
-0.6789903699588495
1.357543569605339
1.617221111383842
0.30450053492340007
-1.20526372459719
-1.6409589089758156
-1.2046846603454044
-0.16630006889078988
0.5480201752017894
1.4610731630312133
-0.06131395002425189
0.4393843904504271
-0.7332585191391776
-0.3780893169711843
-0.8789990429953587
0.9946942129555761
-0.43499311409189023
-0.30235516333296447
-0.07816319619919297
0.30321716008744415
1.1548020234730494
-0.5048029285467067
-0.47538530539268853
-0.5959883645394266
2.0352391627731077
1.5336194110517036
-0.22786517319583635
1.5946309037807107
-1.1908515297280569
-1.0999103818610458
-0.401390198002086
1.1188817745571864
-0.6198426371012045
-0.960503668339379
-0.6130243678722933
0.43274160713360293
0.8366334308966549
0.20828958410538143
0.7525210827937573
1.3996872264399944
-0.6003916654867869
0.6287107449255578
-0.1674068380429126
1.3907570288043445
0.48195418089394493
1.1102016668453216
0.9683482530031559
-0.23842779949721638
0.04982270783881497
-0.30398028276552114
-1.593330888591647
-0.37533708240484365
-0.3591950920967437
-0.2015573873759062
1.1032745831533792
0.03891278262284379
1.9089964760158211
-1.088687022037938
1.471794862535604
-0.17490947999826242
-0.23698942362268852
-1.1392314742728034
0.1256633501865421
-0.14109100217646806
-0.6103415565555014
-0.36785869578941593
-1.1212327023690425
0.03218360228086214
0.029471261947587424
-0.7268533561785517
0.5257142528786677
-1.0793066617261244
-0.5951413217810064
-0.16726457347507445
0.08816707488566632
1.755108476367362
-0.48804106415185683
1.1944320715382963
-1.284743236131591
1.6843070154842954
-1.2011973346278735
-0.49982629221451197
2.3407127645449246
-1.0432457679799971
0.356948849190549
0.9706932275340046
-1.5821107929242169
-0.8121826000212838
1.5243465540614904
-0.5565368341085247
1.1502862352092025
1.9432910386719275
-0.6695011750101304
0.474767906548479
0.5364992903498076
-0.6844954581239092
-0.326781505603341
0.8637328843302128
-0.30629585750673904
1.104834842444041
1.054744860698574
-0.31103520270311363
-0.3202113352262839
-0.2534886690605444
-0.4560928098814842
0.07906124336107866
1.9220041150332292
-0.37129259054966296
-0.3877030410756022
0.18701899560022928
3.3169935634378924
-0.09652915243778615
-1.5979335794211382
-1.3190441765305252
-1.1444560403946173
0.2046639619071541
-0.9381775791291214
-0.08786166767175525
-0.8555210572097306
-0.2293870666240439
1.2318971922417277
-1.6514395549392857
-0.043884250289534
1.025294112104664
0.06313349482570711
0.7864638390814335
0.23973998608321007
0.6438783351338259
-0.5126247750030465
0.2959617344986295
0.1510514790581844
-3.0030378126337967
-0.9322659126418534
-1.8545119759441686
-1.8173855174774196
-0.7970801010464658
-2.224500578569167
-3.063314436314985
2.0332986632462133
0.12283284911202152
-0.2129882194796355
-0.7942127298922076
-1.1145951283561797
-0.9803911946758145
1.2994292443608446
-0.10149483718266293
0.42034685374214015
0.18119138077032299
0.7585627385938714
-2.208984313557015
0.05955127544440065
-0.4929413040216614
-2.122466622626364
1.0261207127919796
-0.04284013031857075
0.7761874592664283
-0.7936787115778663
0.8216294178982507
-0.34519349467050264
-1.1433406359615317
-1.2558467110955522
-1.274861442749989
1.3147484586914273
0.001379611441020257
-0.31346999290073374
1.9511144213348548
1.6484850496937296
0.26510774087754047
-1.342219676637696
-0.14306584904839006
-0.5329686305202159
-0.47309443071347274
0.150995768890843
-0.11651457663809142
-1.9566083473478186
-0.6111674817999799
-1.3488798812115006
-1.2814974925496427
-0.7703204013782379
2.01479614074872
-0.6749334581490161
0.8620975775720541
-1.206602597479988
1.7786813066070608
-0.35004227860201004
-1.1380734383764253
-0.8119364564427184
0.42620661911909563
-2.336516121690211
-0.23395366979589827
-2.050759241581978
2.5234592415902526
0.7614910798724281
0.7055407711812095
1.13730213579574
-0.2876671563561839
0.784980546106932
1.6646642810031986
-0.258163160102963
0.29615684046763796
-0.00513293488839662
-1.1422005589462674
0.8513973434163268
-0.8990944485671678
-0.4580379038122756
0.03784142996254291
-0.4204922985342926
-2.4660510384008854
0.9227258348367327
0.6887851898027584
0.5045188364083716
1.545003140656467
0.6112616932867031
-0.3126418184251034
1.3618700417377148
2.3077857264670003
-1.3727313126473464
0.30131647052792176
0.7235219550008912
0.6919768380092671
-0.45262234489257647
0.5388147490134282
-0.2101764072002032
-0.739650130214434
-0.4935300331793524
0.519010849959175
-0.05621971225089196
-1.5471285029918398
-1.0995043461718879
-0.15650168349885404
-0.2550550620569134
-0.49954584878531916
-0.7220022493069153
1.3494002045272575
0.7796411873792108
0.6545613508239883
-1.5377041277975665
0.6594599976655094
0.44027111876012076
-0.6349769681276302
-2.0776302994885243
1.8685594034504514
0.6759186769399078
-0.32287123064345347
0.11374819044826145
0.40130871732876844
1.4684428215693524
-2.0058082622372697
-2.043873240946616
-1.3226412636851177
1.6360505581627156
0.2718349663768992
1.5543809944640357
-0.47039197886779277
-0.13023877392634287
0.35640131554374965
0.02925842455336363
0.6127045620201129
-0.1524628442056623
0.8845645351018747
-1.423591005142767
0.4138032322744423
1.7244585242061636
-0.04694335778232622
-1.9708530588558628
0.5457819711531581
1.2430051399048458
-0.7685949298784142
0.733531651954881
-0.17342549441266567
-0.8644609665497572
-2.4224420013387413
-1.3523024766670293
-0.2701382002812286
-0.36452558008815067
-0.23049843621731053
-0.0010517732637954943
-0.7959955615105636
1.0047878796551042
-0.44368977460752446
-0.36225941206656603
-1.0068630348134082
-1.3036041610661375
0.650401372326417
-0.011777895158777285
1.3002698381510727
0.8579676242579022
-0.4396724804768865
0.1623367597013237
-0.13925683136982367
-0.17520401580315548
-0.3803418499769701
0.45999359626435377
0.7387683658446601
1.6949651655577667
-1.3009759209394272
1.1822602426924258
-0.6406944247185548
-1.3294629260902444
-0.8776200235511803
1.7149709854615953
-0.2348510100550098
-0.1994728600649874
0.2401689144493561
0.6462814804776477
-0.3636080129209061
-0.8282476893359304
0.6451552778412089
-1.4098635334469787
1.6305312792389948
-0.7636306558134048
1.0492342322548625
0.08371750791508298
0.6661775883913466
0.820434981096098
-0.7405951957395195
-0.6404997061712258
0.543312594079067
-1.5178564600564655
1.3693737015056857
2.372072910577513
2.755454135327881
-0.7352020116857111
0.20085936453466938
1.1941837070001737
-0.524318669130422
-0.32853925457070715
0.9499877953379103
1.020844734490876
-0.5661092754693784
0.722349762271856
-0.16621658698124875
-1.0966251589302942
1.0246816031561028
-0.583027619788963
-1.4921214754379575
0.6097184402381362
-0.018836181684583685
-1.3008617069809267
-0.22291557145995988
-1.641468190733093
-0.31904295279012257
-1.1109884166053379
-1.8975042385819507
-0.8639939921877908
1.2907125953736855
-0.07401992742676947
-0.05089104151717879
1.2511983386785084
-1.2390888083443494
0.2805550723337504
0.8020532637032453
-0.7304042218014412
-0.26726660219210696
-0.0727816380459074
-1.2873493649172012
1.2071767214045113
0.7012375959641406
-0.9906047632466515
-1.2027349654487551
-0.7585866731585199
-0.16515693405571452
-1.1565270447556315
0.7832431098476517
0.19668066099140902
-1.0362788578256572
-0.3912476088615836
0.2005273652867525
1.045020853631098
0.4445491139956501
-0.4236870618439589
-0.08597134623874507
2.85774380672883
0.3901029167965466
-0.277036125891417
-0.08510038448078648
0.29294118412298004
-0.9578087265149354
0.18858061973648638
0.45770163183849727
-0.21401075639001435
-0.21887355979570453
-0.07268621001450869
2.1002635136684917
0.4323315889651106
0.23448748858952714
-0.6556550935546411
1.2368856900476004
1.725802719484139
-0.5843579666016303
-0.10656048469447627
1.3614858428785235
0.6181586032480272
0.38590685696912236
-0.016109263080444178
0.21846249939038737
0.48096678208853866
-0.4257749151367037
1.8329847526141552
-1.4119131115101442
-0.9888921567020895
1.9668359954348524
-1.0352052025099383
-0.6867339083169604
-1.0754803373039672
-1.2531954735270143
-0.9574359613948594
-1.2714393086224804
0.5040699601223093
-0.7291242715506921
1.7472874406827288
0.7147688370916971
-0.4278675118990626
-0.7490384036255406
0.7045647464310177
1.4743431246050307
1.1238188895788859
-0.3134255124740221
0.27579393727525187
-0.35514606019372275
-1.0925617583473026
0.6923247083297045
-0.0820423479734734
0.49244720749988974
-0.7455735498160858
1.9199697810997267
0.6873695997251714
-0.6943160641313372
1.4505132533845244
0.07383903236403866
-0.02647765412476655
1.1478744706582065
0.49099974691709797
0.19835536763734604
1.244340146455406
0.5809398748541249
0.2230791221003894
-0.6816679663566005
-0.47606710978912
-0.6445238732124151
0.2867861650994805
1.085319754181951
-0.533012980409613
1.3170160846760626
-0.16444153827802693
0.4953523034492297
0.6741604387570405
1.682384798218507
-0.5696721015761179
-0.5321110017849167
0.029430108032362432
0.8490864534514329
-1.3183990375284196
-0.43667560292751023
1.1927553886875168
0.5367847648949458
0.555962296942882
1.9198271408888192
-0.18982925025273284
0.689931651609135
-0.03178328647697287
-0.8269981869450936
-1.003163625561158
0.20261731885378192
-0.8827531660385323
0.17659706720588236
0.30305690904487487
-0.23281230374500192
0.4423649781582449
1.0599401107056718
-1.9752900598305165
-0.3714423638133899
-0.6197836144446678
0.5545277082862605
1.4026815551400966
-1.1328981231824244
1.1816750717721947
-1.3827442766977085
-1.9290039327860506
-0.23554832585172536
-0.11383736105251901
0.36209875492031385
0.14663451609520822
3.066303348542871
1.5780908516887424
1.5781872751288504
-1.3326958274986356
-0.805863018921757
0.34412938685826727
-0.09254078173209805
-1.5037557643804313
-1.0639461597226134
0.31969480590066085
0.788458104026514
-0.3708012177067692
0.7767611301755996
0.15085610658477133
-0.06630830873532807
-0.6627816689970717
0.11155769534635852
1.9953526226471123
-0.27683673926174424
1.4556645982964187
-1.0528936691470252
0.8466571493986138
-0.10055197914188366
-0.46360046155418866
1.5714821571105115
1.512331430552238
-1.2533804553759442
-0.33330769381754927
-1.6595718287170182
-0.6895095778664841
1.3408262935811017
-0.14111496835900675
0.22203124464151874
0.23774034703245933
1.2396368746463153
1.8237032202481067
-1.7191785180510673
1.4117476155883633
-0.9602734849194345
-1.9496643473991664
0.12693209445895917
-0.5957355611135385
0.8356695120998878
-0.22474764436279746
1.2991155798519456
-0.8219485868926035
0.4028107496426935
-0.30521734328237904
0.7804304406133892
-0.3667040267705617
0.2744773499713015
-1.7007633451503978
0.6283453133613933
0.2871251905789822
-0.1844343852024864
0.7397459076358006
1.280641817906512
0.09366457449568248
0.7630675120639754
0.9141027190481351
-0.22563294686607907
2.0702201410105494
0.4818138371396109
0.1511403461178115
-0.7589399653144477
1.1023450061825806
-2.4603326400326795
-0.055236322102806726
0.9442934986592674
0.2789090904682276
-1.4051466085195323
0.19491837150100952
0.21062677958756476
-0.2570027253625466
1.4622929176575818
0.26679523057525995
-1.3150021597647352
0.749530989096709
-1.0392168056217532
1.486854195884003
-0.5693329100686654
-0.38665737238446957
-1.2652392625470004
0.3981234625383273
1.9705996263244678
1.233912983486217
1.094007596140386
0.8908421952294328
-0.24413882251934535
-1.8431725731429323
0.783187599690487
0.8032326056869914
-0.15159815798566956
0.6167230596509901
0.1405439255560371
0.31920674663562915
-2.2749086212008183
-0.04884367042944065
-0.9110505199668878
1.3209253462981352
1.2528883143675515
0.7633243006105029
0.22133579653122887
0.04911383209913252
-1.0011810236945071
0.39561900655493715
-0.17880528603510545
-1.176319542531215
-0.004383640412525104
2.3702921942675297
0.2837620324845183
1.4509175085625088
-1.8428937921633983
0.6199906451496885
-0.26432310606474124
0.49780143190853
-1.2704266089681007
0.12003891322813288
0.9043008479778307
1.5009158047601932
-1.2410985565941992
-0.22213997213809608
-1.082222725252856
0.03666912418312653
-0.1397943971375755
0.3181418620759396
0.9946615513648942
-0.6548221256977307
-0.9721006227310399
-0.5385058424975527
1.7535765812102981
0.8883076867640018
-1.3155397164459335
-1.3132746556045054
1.675658368133558
0.3346399808836368
0.5921897475192713
1.222015996197829
-0.2268425175052202
0.498552516414707
0.8959315757228935
1.637068124538667
-0.27172772722723165
-0.20869939610175814
0.058166046185796065
0.22133098424039724
-2.5010592084660774
0.37064358318294427
-0.3662776672414067
0.9908607928751951
1.6112629944516865
-0.9231598386748918
0.4271459434428926
-0.8097350185990104
0.4582079595304972
-2.353224656586984
0.5566693418811551
0.40365000956325126
-1.452843490730775
0.07133420005072806
-0.044232142585104266
0.9371513812265051
-0.6911567019662448
-0.7815698948966797
-0.9123251315241057
0.19841648145838153
-0.1529665587149337
-1.3367423447041242
-0.28250652092296114
0.974067999947938
2.611629932597626
0.20955414253550278
0.4131765935366247
-2.613432292493456
0.16008647252441935
0.9553865302148778
-0.08072671544349884
0.6172821224484242
-0.9836383861228185
0.8597427790374812
0.4088721797893424
0.2035697193949297
0.8269274102039279
-1.2517172271054051
1.3295652474347608
-0.9023555436186168
-1.625926679243516
0.7582194340739652
-2.01141496049326
1.071903578528645
-1.249510248711032
0.154965369978709
1.1024599620426485
-0.5717013818220769
0.9892404477398165
1.3209546842885982
1.1221451115044883
0.532916498673123
-0.9271661595602643
2.4608126022888976
0.870886159338591
0.8587636047782967
-0.6278163974484238
1.2174563499339304
-0.4595528386515873
0.05516466595860686
-1.1953334875497628
0.9581867631444103
-0.789054321627559
1.5161090123773973
-0.6971296247551215
2.5656301499546763
-0.6120721619209278
-0.8795372075046942
0.7169375194307116
0.19461392984616024
1.2030248901307479
0.22310611789637594
-0.9957194942191349
1.282386100209121
-0.6002133695689233
1.4410735370116532
0.41885115777943094
0.37751287650281606
-1.707344114282431
-0.4274480892077259
-0.17530642665185284
-0.3598249884367777
1.2278568943147
1.3079502289518243
-0.7118888008683053
0.33271435072459044
-0.2523288996706808
0.5593447702246825
-0.19860614777602476
0.5471073117831602
0.48849185237344145
-1.6848333620562361
0.703406316772043
-0.30479570804282013
-0.807224530444282
-1.2010655761033633
-0.7245721767922317
0.635388340294309
-1.571251343358323
0.27349062507609845
-1.2299676085081634
-0.21546271848371548
-0.5386023964165707
-1.6507700074661729
0.5857696528878126
0.5049686472062854
0.011901995926280334
-2.1999857237490494
-0.4570115512714915
2.7614508384300223
0.3538709341243832
1.733113034290391
-0.41889579586357434
-0.7464070993559926
0.9347288206229473
1.0823452380268166
0.025654292454060312
-0.6695235734454515
0.31909819220509966
-0.334795750577409
-1.2952061364668637
-0.2503899316507556
0.7150296151704001
0.2599597337699299
0.05060045205428258
-0.12564347245008087
1.2625583339703266
0.9058499566437016
-0.26376638279948755
0.439453591132289
0.3335390721369118
2.5850799508817763
-1.1740319215158133
-1.0606951937477842
0.5848297640595183
-0.17085705691180933
1.604781562406477
1.0022170131450499
0.8542595233501452
-1.2089448889664924
0.9119746424177628
-0.9854037259459502
0.36798047062139533
0.6173430387255958
1.3745676069763533
-0.3422893961633482
0.6664663224098607
1.3309719135417433
-0.4997896465658493
1.4308585636406135
0.7503952639708508
0.6375969486707579
1.7612228003617505
-0.7652602994643433
-0.15105078322211965
0.29154854086812787
-0.4394174842742862
0.20095393402912562
1.2962581967111062
-0.1712257366752599
2.8139411196597846
0.5074940640507072
-1.0493542015572668
-0.5791072691693768
-0.22668169599221594
-0.47408560607018535
2.1303925282778717
-0.5764684867865424
-1.4720904973884252
0.7829936211153175
-0.6667044664578635
-0.14591600935987536
0.9960035185989422
-1.4827158048575215
-0.7440746163013175
0.22813223267243823
-1.7832300014447449
-1.962336952988111
-0.028535621866647518
0.35255191463765867
1.4783149390841162
1.1514723682854906
0.9899001336520602
0.37638434593792447
1.070410472761725
-0.28618724873922274
0.015287063163526361
2.4887226353503107
-0.18700343243928408
0.12093950500902528
-0.45059487947322086
-1.0656198999159217
-0.6451593866376344
0.2925200716707267
-0.480612376632731
-0.6976989379109816
-0.0013905399823894873
0.6125561764927278
-0.015453798880837682
0.6465315461941413
0.8804238157960537
0.22051646803351266
-0.7626067475439541
0.06420370944821571
-0.9719997094161191
1.3882482114588255
-0.46052353724251904
0.3172952227911104
0.8846232661971227
1.4330324739466345
0.057719387446261095
0.8818190005600217
-0.9517653207441195
-1.3886764369784965
0.8050602198596543
-1.2284005237359614
1.0111275061525944
1.8416509930802885
-0.3614721193405019
-0.48610015699767906
-0.6538620005540716
-0.2712075915944132
0.7359717587447527
-1.2874761318206633
1.6944566646890984
0.9673219005151465
0.08373892199552789
0.5980599914508542
-0.1314333734985797
0.05364641392491399
0.7705245351914084
0.4925928013488268
0.1616819502754892
-0.6079211169982042
-0.12738307956523776
0.9358331189866241
-1.3912784873733848
0.0383247091253371
1.192675291146488
0.6247320975438427
0.8904121335894793
0.1235513287544515
1.0652182645532968
-1.4345573229972404
-1.8722198634444387
0.9225144746808872
1.512807299729937
0.4330587351113619
-1.341365625247913
0.6489761719549051
-0.3377490659044496
0.2593922399228128
-0.624842087831177
-0.5864775007383571
-0.7730691857506222
0.9128709630739288
-0.10690316850355559
-1.5759144829599303
0.9785566805123871
-1.8817313687444608
-0.5435145080104433
0.581630820773318
0.8784326933624138
0.9171453590130466
-0.5448696984460477
0.7123625483905937
-0.2102540330742807
-1.605237747409921
-2.294482726848346
0.6597808733971645
-1.5221091053118447
-0.6194392210711559
-0.530831638373947
1.0091607790373571
-0.13098246343925793
-0.6730128059641807
0.8369993834396555
0.14111425424005752
0.6816706185393873
-0.2130983062762337
1.794380859530101
1.7358977225120895
1.4976272280096365
0.7062775477894772
-2.6563771618880514
-0.8179571785405715
0.5171418973147558
-1.5277275270979307
0.7750730316969459
1.4518944074167957
-0.8327462593776274
-1.3879830190315503
2.2521934853371515
-0.08162247367735044
-0.21142392324214782
0.34549618975473995
-1.4725529781739148
-1.3953393678293813
-0.14073991155001375
0.12397096796065327
-0.4476142884290417
0.4071490488868275
-0.2905759329350549
2.5611799716636314
-1.1416398900300517
0.6796411796656368
-0.5100407732983455
0.33652271710607085
0.7835101809550165
0.4572569853535981
-0.3149021098665106
0.10419201201142057
-0.8375470319910757
0.11591406723231841
-1.4052104424636898
1.8871267973019823
0.334368875889595
0.11962700784006532
-0.6033887415593251
0.6295757454290527
-2.029325883941004
-1.260056763188201
0.363048278408126
-1.9162424635667914
-1.2073014716027852
0.9471094619528341
-0.3837609473781082
0.44783156811434904
-1.8476112712392179
0.1548087854384118
-1.4613195973168989
2.547308077648007
-1.6062149953344131
1.187989062275728
-0.3485242073380066
-0.23925423000697363
-1.0417237275127376
-1.5041794267583424
-0.48624534349728715
-0.689630534493459
0.9028907632362899
0.46925355033605953
0.286747708922193
2.013315573827987
1.4814599758758784
-0.23269787207351011
0.6820474850231767
0.9907944308904987
0.31625650858465976
-0.3506566197407648
-1.720111074802239
1.6858658825524648
-1.2549794951042395
-0.041227275070041716
0.06604135611600594
-0.33446008355516116
-1.1120851342513027
1.6477200059450279
0.36576185037356346
0.6490888700451787
-1.2939905229341253
-0.0143840020612181
0.9226887803736273
-0.513208761741935
0.905449635550401
-0.7489055269348337
0.6589527147219546
1.7234048583529678
-0.24335554615737992
1.0312174325696009
-1.114980499500496
0.6602352336045448
0.5154378649459576
0.18425189997915264
1.318959340890582
-1.2968122073795196
0.8903516928311063
0.04446764661380082
-0.6693284910633357
-1.262087191703544
0.8491099937414341
-0.3247954869438751
0.9466092823447678
-0.5140379250560239
-0.24985845092204956
1.30893929402718
-0.9173482630025298
0.014326062186699077
0.4438192524869445
-0.314804888781478
-0.47811976053717853
0.2491765133543735
-0.42089816815992315
0.20424231700348805
0.34484453236619234
0.035637572943876365
0.4271360414503937
-0.796311905181023
-2.482231843722311
-0.9591764062480188
-2.1303551845500213
-0.9713036768048103
0.6525550555992601
-1.0627828631851972
-0.6125132942539495
-0.11089104418387827
-0.6902420532220854
-0.9408803355815849
-0.030549719182034665
-2.2897172039161005
0.4236141142156651
0.9499995758689109
0.6560526524432003
0.17734315509393647
0.32164068707249804
0.1403061988439973
-0.007601482744387028
-1.8975957204235616
-0.7069129688862489
-0.7400024603175062
-0.6662752716018527
-1.6611259586708425
-0.12702416795903912
0.5595283612034323
-1.600070098838464
0.5594238591924533
0.21803567485496672
-0.9543257959399171
0.8313896178632559
-0.6085341666850491
-0.2685842425038023
1.7022767419028288
-0.559274991862377
-1.906820498401046
-0.4224812985215894
-1.4556401141955577
-1.1646415232361091
-0.8807087871616174
-0.3185791900231831
0.34722441820018374
1.3299061491692257
-1.3821624857347365
0.24594244332422088
1.3438606214668032
0.9791230373382249
0.4743321740331282
0.38586041673923044
-1.060950776813312
2.03794035951081
0.4835103063786429
-0.7174142559922355
-0.31233622732077426
1.167736636203785
0.21597452177623414
2.4355497357703344
-1.794836546576025
-1.7566887528901525
-1.7608888161919398
-1.513992648690878
-0.9999643807667237
0.5951271149542121
-0.5346353640981136
-1.5410779769985823
-0.05518528767443539
0.5849180542349087
1.0644108258413791
-0.8912215908151526
0.8545247766526323
0.7320876199612398
0.09284518177128892
1.328890826992945
0.9058630012515431
0.38987098918887225
-1.5078258801985274
0.9954063398185283
-1.1234132835363766
-0.07320992297580838
-0.42398774350310925
-0.8730522107031674
1.8551940006636465
-0.26437161800913117
0.3673823247737776
1.4118336384772792
0.48829534096218935
-0.379509053684177
-0.032575210073126706
-0.4177664120806875
0.14810860869125456
-1.3264197427044466
1.0659430873657325
0.6234016870529209
-0.03818920676148195
0.4023765876091427
-2.3784992396426983
-0.3720455832054358
0.6060419445290374
0.15803252269719428
-0.07643715873321279
-0.8880566717658226
-2.46115833709186
-1.4710381462561355
-0.25392765485403573
1.0570813723483574
1.1752517248283534
0.6419657881146447
0.14277537720032926
0.8482511509552695
-0.025722250794697633
0.6387956403708316
0.2473183097826056
-0.8122212546841333
-0.9278546198184691
1.5654526811285456
0.401574226805087
0.22374705746597603
-1.0966774686395893
1.9558354140942664
0.6765723285953175
-2.09383603891351
0.9737065021758237
-1.162241586829224
2.5565364956967143
1.463797339040459
-0.5671599066659461
-0.40895565737870715
0.4857918564476097
-0.8813545124307618
-0.41520013958652807
1.1468354637045155
-0.6572931586799691
-0.27020020111310494
-1.5839029730377607
-0.322599543519497
0.08610471154660196
-0.0273156712380449
0.7820707817611658
-0.6790950946815725
-1.2170563342479224
-1.437721405648855
-0.47378993360156085
-0.8095866643379465
-1.0139961388097551
1.3019277104803741
-0.41743511105810194
0.4545402204959366
0.14707781681524118
-1.560922294877476
1.0214436568849545
0.9739398071831165
-0.7338617788067033
-0.863186909844325
1.0986079479406994
-0.5476855854685958
-1.0069155419011602
1.030263277590731
0.06691265911692616
1.0194195150992806
-0.02400016679627117
0.029211569805727384
0.7698210789639939
-0.5615081509850552
-1.8965756083189265
-1.5852650598154172
-0.10383753622444394
-0.28302574578272977
-1.054664745833393
-1.2862738024269584
0.7436091713027813
-1.4156703534660504
0.583574113910037
0.46117144308332775
-1.1315696237927653
1.1673047850052054
1.4723287166867218
-0.06477975999147623
-1.2236550422674835
-2.076658213031001
1.5367496362490403
-0.46870127150450397
0.5828517179094692
-0.5258469572111925
-0.39491184664626117
-0.7502499669944448
-1.5908303439957558
-0.3530107840057711
0.483473410409309
0.8125327475320463
0.10290090293496566
0.3676050899807377
-0.28091054371041
-0.7538116607402029
-1.35489078904571
-1.7377941616399943
0.6784573911857271
-0.4107140433331724
-0.349146162577824
1.0317243131859648
1.5287306213939182
-0.2952687958703121
0.6570795291168973
0.5008571445828158
-0.6665592269049903
1.0819539244947463
0.6482943326747074
-1.5155515924305998
-1.585071430952326
0.17570834728340773
0.143154630116791
0.15466857571343023
0.014084635313936854
-0.11921662002442474
-1.6778656594196417
0.04556441342468346
1.3059380200992028
-0.21012984732330242
1.750109148744539
1.047557379050876
-0.00491089158366891
-0.5297805969816497
1.8541715169120756
-0.33411472398917547
-0.7235373870342902
-0.7856902802588047
2.847749444749874
1.062899685866477
0.8907525378176719
-2.1009810368627178
0.47197421851148846
-0.3162523275596316
0.6836779074759536
0.5910242707884404
0.4267156450469856
-0.4462875177590618
1.1342729892942172
0.6833752972109245
2.322338595588535
-0.9780095646886567
-1.207432295963973
0.34572179666116615
1.2846242231219827
0.8245311553382312
-0.6193171354952426
0.3378751976036382
1.0693390227073827
0.5676271198913955
-1.0036747173204987
0.5500002710981946
-0.6769324406380344
-0.7580319255635046
-0.15424488879886217
-0.7845333527801225
-1.7761075967584488
-0.29222263271319215
2.3346426974582117
-0.3890313518512775
2.354952153741438
0.313987655693876
-0.9164028406470981
1.069632758279396
-0.7433379047847881
-0.8575410980417231
0.08284485946022821
-0.8962738280374516
1.469795324563911
-0.7941426691063075
0.917887619948237
-0.6479878411617194
-0.16747521568615165
0.8950398933849683
-1.194667319745255
-0.7493424004270276
1.126346523144275
-0.5639232157209191
0.15960793015268643
-0.3598944736618986
1.1012873623306871
0.572099524209864
1.6766190423648402
-1.0468850608730134
-0.23858713356470293
0.8639831359993663
0.26628161953269947
0.46836685226197944
0.9351477436937448
-0.974249736156424
0.7582284756926408
0.3239803584509459
2.5958556646158377
0.8277604008741976
0.28291085797157817
-0.5529077305329517
0.012562965471152248
-1.7083890155845367
-0.5442180367797409
